tree
version=v4
num_class=1
num_tree_per_iteration=1
label_index=0
max_feature_idx=2
objective=regression
feature_names=inflow_mcm volume_mcm outflow_mcm
feature_infos=[0:472.4537037037037] [3111:9497.0799999999999] [0:440.97222222222223]
tree_sizes=1700 1800 1694 1888 1704 1802 1709 1882 1998 2042 1877 1883 1732 1909 1996 1903 1876 2005 1633 1955 1878 2066 1884 2062 1906 1888 1735 1801 1805 1831 1801 1959 1893 1825 1816 1882 1717 1823 1827 1819 1798 1822 1731 1966 1869 1804 1956 1958 1903 1819 1816 1903 1823 1980 1732 1651 1716 1803 1798 1818 1711 1719 1654 1743 1818 1628 1783 1880 1885 1721 1716 1797 1763 1483 1648 1774 1689 1649 1721 1635 1721 1487 1492 1488 1406 1526 1488 1656 1465 1404 1731 1759 2025 1661 1828 2006 1395 1471 1557 1640 1384 1451 1776 1542 1835 1804 1624 1558 1987 1989 1902 1907 1556 1830 2686 2109 2013 2552 2108 2122 1783 1872 1721 1163 1934 1147 1341 1645 1720 1934 1781 2170 1632 1714 1675 1631 1748 1919 1695 1747 1737 2064 1636 2100 2660 1931 1860 1941 2063 2866 2965 2704 1402 1449 1690 2240 2528 1917 2005 2481 1762 2333 2600 2878 2798 3263 4317 3641 2309 2117 2449 2287 2599 2645 4001 3815 3844 4010 3999 3885 3331 3188 3182 3106 3090 3099

Tree=0
num_leaves=19
num_cat=0
split_feature=2 2 2 2 2 2 2 2 2 2 2 2 2 2 2 2 2 2
split_gain=3.35903e+07 4.67694e+06 4.66713e+06 909044 559736 399898 337829 141190 91431.4 30359.4 29532.5 10716.9 2767.75 2399.37 469.26 72.7145 6.53535 2.00103
threshold=179.80324074074079 79.571759259259281 272.97453703703712 129.68750000000003 328.9930555555556 223.43750000000003 23.437500000000004 108.0439814814815 152.08333333333334 244.44444444444449 203.41435185185188 166.95601851851856 145.02314814814818 187.90509259259261 158.62268518518522 162.90509259259264 162.32638888888891 163.36805555555557
decision_type=2 2 2 2 2 2 2 2 2 2 2 2 2 2 2 2 2 2
left_child=1 6 5 7 -4 10 -1 -3 12 -7 13 14 -5 -2 -10 16 -16 -17
right_child=2 3 4 8 -6 9 -8 -9 11 -11 -12 -13 -14 -15 15 17 -18 -19
leaf_value=156.2109431196105 163.45935112275126 159.86284454593897 168.20494780329929 161.67413122245685 170.73405861526226 165.37397058593371 158.08614588248881 160.8958755163703 162.40890152845068 166.44070374961501 164.5588902042106 163.04764675303801 162.17286385121059 163.94505914967684 162.58181601650438 162.60260624085436 162.60260624085436 162.65492399466464
leaf_weight=343 93 588 457 193 339 247 574 450 15.999999999999998 205 204 145 45 166 77 14.999999999999998 36 29
leaf_count=343 93 588 457 193 339 247 574 450 16 205 204 145 45 166 77 15 36 29
internal_value=162.661 159.655 167.067 161.006 169.347 165.045 157.339 160.295 162.345 165.912 164.16 162.798 161.751 163.8 162.58 162.603 162.588 162.646
internal_weight=4222 2511 1711 1594 796 915 917 1038 556 452 463 318 238 259 173 157 113 44
internal_count=4222 2511 1711 1594 796 915 917 1038 556 452 463 318 238 259 173 157 113 44
is_linear=0
shrinkage=1


Tree=1
num_leaves=20
num_cat=0
split_feature=2 2 2 2 2 2 2 2 2 2 2 2 2 2 2 2 2 2 2
split_gain=3.09553e+07 4.30852e+06 4.29946e+06 836833 489154 390997 312923 130074 84444.5 36068.8 27133.4 9908.94 2495.27 2154.92 857.707 443.737 68.424 6.05682 1.34737
threshold=179.80324074074079 79.571759259259281 276.79398148148152 129.68750000000003 335.35879629629636 223.43750000000003 33.391203703703717 109.31712962962963 152.08333333333334 244.44444444444449 203.41435185185188 166.95601851851856 145.02314814814818 187.90509259259261 97.858796296296319 158.62268518518522 162.90509259259264 162.32638888888891 163.36805555555557
decision_type=2 2 2 2 2 2 2 2 2 2 2 2 2 2 2 2 2 2 2
left_child=1 6 5 7 -4 10 -1 14 12 -7 13 15 -5 -2 -3 -10 17 -17 -18
right_child=2 3 4 8 -6 9 -8 -9 11 -11 -12 -13 -14 -15 -16 16 18 -19 -20
leaf_value=-6.0969852701603688 0.82428130468160066 -2.8357760661482536 5.4436099082083267 -0.8919132949779508 7.8571777034508363 2.661355416264322 -4.3084116208416807 -1.6234546168504045 -0.18827031285073434 3.7298338870512922 1.8790970430782763 0.42772470820102326 -0.41463291337323965 1.2899012778063343 -2.242985437881905 -0.020014193743761843 0 0 0.050609936453534579
leaf_weight=359 93 350 457 193 325 247 558 437 15.999999999999998 219 204 145 45 166 251 77 14.999999999999998 36 29
leaf_count=359 93 350 457 193 325 247 558 437 16 219 204 145 45 166 251 77 15 36 29
internal_value=0.056833 -2.82889 4.28603 -1.53274 6.51058 2.37693 -5.05166 -2.21428 -0.247559 3.21404 1.49683 0.187189 -0.818076 1.15117 -2.61868 -0.021726 0.00082983 -0.0140219 0.0420557
internal_weight=4222 2511 1711 1594 782 929 917 1038 556 466 463 318 238 259 601 173 157 113 44
internal_count=4222 2511 1711 1594 782 929 917 1038 556 466 463 318 238 259 601 173 157 113 44
is_linear=0
shrinkage=0.0408694


Tree=2
num_leaves=19
num_cat=0
split_feature=2 2 2 2 2 2 2 2 2 2 2 2 2 2 2 2 2 2
split_gain=2.85298e+07 4.03868e+06 3.88178e+06 700356 425460 393472 387788 88654.2 76748 52343.5 21518.3 9178.02 3693 1027.91 605.128 64.4047 5.61334 0.750324
threshold=184.0277777777778 82.581018518518533 279.45601851851859 134.0277777777778 40.56712962962964 223.43750000000003 337.55787037037038 110.47453703703705 158.62268518518522 244.44444444444449 203.41435185185188 166.95601851851856 145.02314814814818 122.97453703703705 191.78240740740742 162.90509259259264 162.32638888888891 163.36805555555557
decision_type=2 2 2 2 2 2 2 2 2 2 2 2 2 2 2 2 2 2
left_child=1 4 5 7 -1 10 -4 -3 12 -7 14 15 -5 -9 -2 16 -10 -17
right_child=2 3 6 8 -6 9 -8 13 11 -11 -12 -13 -14 -15 -16 17 -18 -19
leaf_value=-5.5456034051602749 0.8335681464334761 -2.39147048182677 5.3617844896191809 -0.83069249814755686 -3.702543232665938 2.5557132527022026 7.6286020868030633 -1.6671724233918206 -0.019267130994017761 3.6764594372907711 1.8049555886190682 0.43809056131654722 -0.37368480161775941 -1.2383284073805079 1.2556750904041498 0 0 0.048957864889932069
leaf_weight=521 90 519 446 178 493 247 301 273 77 254 204 160 61 164 154 14.999999999999998 36 29
leaf_count=521 90 519 446 178 493 247 301 273 77 254 204 160 61 164 154 15 36 29
internal_value=0.0549014 -2.69516 4.14499 -1.34588 -4.68275 2.38106 6.34069 -2.01262 -0.187623 3.16926 1.46216 0.227469 -0.729957 -1.53 1.13008 0.000848088 -0.0134984 0.0408866
internal_weight=4222 2526 1696 1512 1014 949 747 956 556 501 448 317 239 437 244 157 113 44
internal_count=4222 2526 1696 1512 1014 949 747 956 556 501 448 317 239 437 244 157 113 44
is_linear=0
shrinkage=0.0408694


Tree=3
num_leaves=21
num_cat=0
split_feature=2 2 2 2 2 2 2 2 2 2 2 2 2 2 2 2 2 2 2 2
split_gain=2.6294e+07 3.66612e+06 3.64892e+06 720424 398799 337952 261203 114432 72018.8 54850.9 22829.1 8400.13 2322.02 1998.23 1720.34 1536.95 373.615 60.6388 5.20234 0.205775
threshold=179.80324074074079 74.710648148148167 284.95370370370375 129.68750000000003 223.43750000000003 340.68287037037038 23.437500000000004 106.88657407407409 152.08333333333334 244.44444444444449 203.41435185185188 166.95601851851856 122.28009259259261 145.02314814814818 191.78240740740742 52.488425925925931 158.62268518518522 162.90509259259264 162.32638888888891 163.36805555555557
decision_type=2 2 2 2 2 2 2 2 2 2 2 2 2 2 2 2 2 2 2 2
left_child=1 6 4 7 10 -4 -1 -3 13 -6 14 16 -9 -5 -2 -8 -10 18 -18 -19
right_child=2 3 5 8 9 -7 15 12 11 -11 -12 -13 -14 -15 -16 -17 17 19 -20 -21
leaf_value=-5.6699913903096215 0.78768298375273627 -2.4451632673947366 5.2004663451379747 -0.82283245748533351 2.4542644622673255 7.3648112972441959 -4.3386590687695294 -1.6611257248231237 -0.17250461461208652 3.5610165406266416 1.7337394911655675 0.39403726082684298 -1.2208375369636244 -0.38691612409461512 1.20668143977951 -3.4054299162648869 -0.018547952399553473 0 0 0.047359724465021007
leaf_weight=343 105 584 444 193 247 290 333 299 15.999999999999998 267 204 145 168 45 154 228 77 14.999999999999998 36 29
leaf_count=343 105 584 444 193 247 290 333 299 16 267 204 145 168 45 154 228 77 15 36 29
internal_value=0.053214 -2.60638 3.95101 -1.4239 2.28765 6.12021 -4.67978 -2.04983 -0.228867 3.07168 1.38236 0.172563 -1.52469 -0.755757 1.06435 -4.00864 -0.0196569 0.000863956 -0.0129945 0.0397557
internal_weight=4222 2511 1711 1607 977 734 904 1051 556 514 463 318 467 238 259 561 173 157 113 44
internal_count=4222 2511 1711 1607 977 734 904 1051 556 514 463 318 467 238 259 561 173 157 113 44
is_linear=0
shrinkage=0.0408694


Tree=4
num_leaves=19
num_cat=0
split_feature=2 2 2 2 2 2 2 2 2 2 2 2 2 2 2 2 2 2
split_gain=2.42372e+07 3.37954e+06 3.36496e+06 663808 414142 288930 240348 110597 60912 35707.1 11705.8 6530.79 3251.39 3023.79 1137.37 1037.05 57.11 4.82144
threshold=179.80324074074079 74.710648148148167 272.97453703703712 134.0277777777778 326.27314814814821 216.78240740740745 23.437500000000004 106.88657407407409 158.62268518518522 237.78935185185188 191.78240740740742 166.95601851851856 122.97453703703705 145.02314814814818 52.488425925925931 96.180555555555571 162.90509259259264 162.32638888888891
decision_type=2 2 2 2 2 2 2 2 2 2 2 2 2 2 2 2 2 2
left_child=1 6 5 7 -4 10 -1 15 13 -7 -2 16 -9 -5 -8 -3 17 -10
right_child=2 3 4 8 -6 9 14 12 11 -11 -12 -13 -14 -15 -16 -17 -18 -19
leaf_value=-5.4430965375964711 0.75758567235955665 -2.5414342962257792 4.7199057470518442 -0.76577913577366685 6.879844349532128 2.2807116170350747 -4.1651488217651824 -1.5821476994274082 -0.017855618438216446 3.2290884974518743 1.373257567159001 0.37870591820488975 -1.1435357286390968 -0.34797779224395969 -3.2705747587456311 -1.9966136688740219 0.038661702174591139 0
leaf_weight=343 105 345 444 178 352 289 333 318 77 218 303 145 164 61 228 239 44 36
leaf_count=343 105 345 444 178 352 289 333 318 77 218 303 145 164 61 228 239 44 36
internal_value=0.05122 -2.50223 3.79346 -1.36689 5.72937 2.07691 -4.49294 -1.95539 -0.196087 2.72923 1.23174 0.188028 -1.4529 -0.67399 -3.8489 -2.34647 0.000877577 -0.0125093
internal_weight=4222 2511 1711 1607 796 915 904 1066 541 507 408 302 482 239 561 584 157 113
internal_count=4222 2511 1711 1607 796 915 904 1066 541 507 408 302 482 239 561 584 157 113
is_linear=0
shrinkage=0.0408694


Tree=5
num_leaves=20
num_cat=0
split_feature=2 2 2 2 2 2 2 2 2 2 2 2 2 2 2 2 2 2 2
split_gain=2.23401e+07 3.11771e+06 3.10321e+06 521523 337947 334205 292291 68152.8 56280.9 45843.9 19881.4 6031.32 2756.26 746.596 587.162 53.1354 9.61008 4.46844 0.392901
threshold=179.80324074074079 82.581018518518533 284.95370370370375 134.0277777777778 223.43750000000003 40.56712962962964 343.80787037037044 110.47453703703705 158.62268518518522 251.7939814814815 198.95833333333334 166.95601851851856 145.02314814814818 187.90509259259261 125.23148148148151 162.90509259259264 172.39583333333334 162.32638888888891 163.36805555555557
decision_type=2 2 2 2 2 2 2 2 2 2 2 2 2 2 2 2 2 2 2
left_child=1 5 4 7 10 -1 -4 -3 12 -6 13 15 -5 -2 -9 17 -13 -10 -17
right_child=2 3 6 8 9 -7 -8 14 11 -11 -12 16 -14 -15 -16 18 -18 -19 -20
leaf_value=-4.9101207845811841 0.70532643326636535 -2.1103238434113916 4.8115184314775741 -0.73571649043256515 2.2919060172140147 -3.2766119199037775 6.8314147499931526 -1.4651125135082441 -0.017189127872504113 3.3070774713117967 1.5801975663773784 0.12694527879422735 -0.33527769558363352 1.0756838285812058 -1.0825678278902628 0 0.37883747864741069 0 0.04455170989302084
leaf_weight=521 93 519 454 178 262 493 280 286 77 252 219 13.999999999999998 61 151 151 14.999999999999998 131 36 29
leaf_count=521 93 519 454 178 262 493 280 286 77 252 219 14 61 151 151 15 131 36 29
internal_value=0.0490029 -2.40247 3.64181 -1.20728 2.10785 -4.14538 5.64225 -1.77768 -0.188462 2.82964 1.27431 0.180729 -0.647851 0.96047 -1.35366 0.000796431 0.363971 -0.0120422 0.0373067
internal_weight=4222 2511 1711 1497 977 1014 734 956 541 514 463 302 239 244 437 157 145 113 44
internal_count=4222 2511 1711 1497 977 1014 734 956 541 514 463 302 239 244 437 157 145 113 44
is_linear=0
shrinkage=0.0408694


Tree=6
num_leaves=19
num_cat=0
split_feature=2 2 2 2 2 2 2 2 2 2 2 2 2 2 2 2 2 2
split_gain=2.03787e+07 2.83514e+06 2.83269e+06 524965 327729 264445 222514 89225.8 45376.3 31642.2 12387.9 11732.2 6524.09 4436.11 2213.43 74.7788 7.66756 2.19652
threshold=176.27314814814818 272.97453703703712 74.710648148148167 134.0277777777778 322.04861111111114 216.78240740740745 23.437500000000004 103.41435185185186 158.62268518518522 237.78935185185188 191.78240740740742 118.80787037037038 57.349537037037045 166.95601851851856 145.02314814814818 162.90509259259264 162.21064814814818 163.36805555555557
decision_type=2 2 2 2 2 2 2 2 2 2 2 2 2 2 2 2 2 2
left_child=2 5 6 7 -3 10 -1 -4 14 -7 -2 -9 -8 15 -5 16 -10 -17
right_child=1 4 3 8 -6 9 12 11 13 -11 -12 -13 -14 -15 -16 17 -18 -19
leaf_value=-5.0245767359781652 0.68790593820265111 4.2405319602771616 -2.2652478606215452 -0.70088117371973402 6.1950283208879124 2.1034821029222583 -3.8224389586982008 -1.6050944304100669 -0.023830277296174301 2.9798224042826167 1.2597049633637538 -1.1128891746911107 -2.982713834433004 0.32629026274788836 -0.32844252901508408 0 0 0.050747943426570234
leaf_weight=347 124 396 431 164 375 299 364 408 56 219 307 221 235 126 61 12.999999999999998 52 34
leaf_count=347 124 396 431 164 375 299 364 408 56 219 307 221 235 126 61 13 52 34
internal_value=-0.0119229 3.40718 -2.35626 -1.27937 5.24084 1.88845 -4.1151 -1.79352 -0.191457 2.51092 1.11017 -1.44745 -3.53347 0.153396 -0.614858 0.00242563 -0.0141675 0.0434893
internal_weight=4232 1720 2512 1566 771 949 946 1060 506 518 431 629 599 281 225 155 108 47
internal_count=4232 1720 2512 1566 771 949 946 1060 506 518 431 629 599 281 225 155 108 47
is_linear=0
shrinkage=0.0408694


Tree=7
num_leaves=21
num_cat=0
split_feature=2 2 2 2 2 2 2 2 2 2 2 2 2 2 2 2 2 2 2 2
split_gain=1.87823e+07 2.64755e+06 2.56701e+06 430538 293954 292635 221195 54601 44624.2 39837 18539.3 4803.11 4207.97 2014.93 900.341 70.2973 61.9072 61.7444 7.04921 1.60088
threshold=179.80324074074079 82.581018518518533 284.95370370370375 134.0277777777778 223.43750000000003 35.648148148148152 328.9930555555556 114.17824074074075 158.62268518518522 251.7939814814815 203.41435185185188 166.95601851851856 65.972222222222243 145.02314814814818 187.90509259259261 162.90509259259264 125.23148148148151 172.39583333333334 162.21064814814818 163.36805555555557
decision_type=2 2 2 2 2 2 2 2 2 2 2 2 2 2 2 2 2 2 2 2
left_child=1 5 4 7 10 -1 -4 -3 13 -6 14 15 -7 -5 -2 18 -9 -13 -10 -17
right_child=2 3 6 8 9 12 -8 16 11 -11 -12 17 -14 -15 -16 19 -18 -19 -20 -21
leaf_value=-4.5345311876785166 0.65510935178873619 -1.9237376160925379 4.3000885617578932 -0.67345857108310636 2.1155168942575111 -3.3041010679187912 6.0763230095290552 -1.3417484867758875 -0.022968776235451453 3.0505442367363287 1.4836022794037154 0.11009532609167158 -2.5459635736832817 -0.31645540158958468 0.99941915996286168 0 -0.99677166697543085 0.34770464923754374 0 0.049040837102006823
leaf_weight=521 97 528 384 164 269 320 324 275 56 253 208 14.999999999999998 213 61 172 12.999999999999998 149 124 52 34
leaf_count=521 97 528 384 164 269 320 324 275 56 253 208 15 213 61 172 13 149 124 52 34
internal_value=-0.0114358 -2.24783 3.29193 -1.11831 1.93472 -3.80535 5.16718 -1.63144 -0.166872 2.60519 1.17206 0.163152 -3.04028 -0.591111 0.897084 0.0023272 -1.24024 0.33113 -0.0136945 0.0421909
internal_weight=4232 2525 1707 1471 999 1054 708 952 519 522 477 294 533 225 269 155 424 139 108 47
internal_count=4232 2525 1707 1471 999 1054 708 952 519 522 477 294 533 225 269 155 424 139 108 47
is_linear=0
shrinkage=0.0408694


Tree=8
num_leaves=22
num_cat=0
split_feature=2 2 2 2 2 2 2 2 2 2 2 2 2 2 2 2 2 2 2 2 2
split_gain=1.7312e+07 2.40897e+06 2.40639e+06 445242 299696 211757 198945 77410.5 38845.3 20624.4 11275.6 10580.8 10335.6 4520.28 668.508 256.706 47.8561 2.42164 1.42785 1.05806 0.627932
threshold=176.27314814814818 268.57638888888897 74.710648148148167 134.0277777777778 319.0393518518519 216.78240740740745 22.164351851851855 102.25694444444446 152.08333333333334 237.78935185185188 52.488425925925931 118.80787037037038 191.78240740740742 166.95601851851856 145.02314814814818 161.74768518518519 162.90509259259264 172.39583333333334 162.55787037037041 163.36805555555557 158.62268518518522
decision_type=2 2 2 2 2 2 2 2 2 2 2 2 2 2 2 2 2 2 2 2 2
left_child=2 5 6 7 -3 12 -1 -4 14 -7 -8 -9 -2 15 -5 20 18 -15 -17 -18 -10
right_child=1 4 3 8 -6 9 10 11 13 -11 -12 -13 -14 17 -16 16 19 -19 -20 -21 -22
leaf_value=-4.7306299530330396 0.63581611299631891 3.860000764214969 -2.1073344053242673 -0.64710894265275198 5.6909246929220583 1.9401426356380014 -3.57108575195869 -1.4844115988380326 -0.13568008885021823 2.7074308927838788 -2.7746195900634634 -1.0249823190666971 1.1601420372088631 0.10706983170705191 -0.33131767540634388 -0.0077980991451321521 0 0.31653807929216099 0 0.047391157020515981 -0.030297084792289583
leaf_weight=308 124 401 413 164 385 299 385 426 15.999999999999998 204 253 221 307 14.999999999999998 45 71 12.999999999999998 111 21 34 15.999999999999998
leaf_count=308 124 401 413 164 385 299 385 426 16 204 253 221 307 15 45 71 13 111 21 34 16
internal_value=-0.0107121 3.14064 -2.17147 -1.1789 4.80141 1.71625 -3.79258 -1.6524 -0.176919 2.2863 -3.29076 -1.34119 1.02317 0.122809 -0.594153 -0.0138289 0.00958804 0.301347 -0.0048924 0.0409361 -0.106927
internal_weight=4232 1720 2512 1566 786 934 946 1060 506 503 638 647 431 297 209 171 139 126 92 47 32
internal_count=4232 1720 2512 1566 786 934 946 1060 506 503 638 647 431 297 209 171 139 126 92 47 32
is_linear=0
shrinkage=0.0408694


Tree=9
num_leaves=23
num_cat=0
split_feature=2 2 2 2 2 2 2 2 2 2 2 2 2 2 2 2 2 2 2 2 2 2
split_gain=1.5956e+07 2.25223e+06 2.18357e+06 355436 260797 249205 202269 43207.4 38160.1 30479.2 18060.6 8521.7 8343.2 4100.43 2589.42 1711.48 582.831 509.174 62.3178 29.1986 6.28754 0.564119
threshold=179.80324074074079 86.747685185185205 284.95370370370375 134.0277777777778 40.56712962962964 227.71990740740742 350.2893518518519 110.47453703703705 158.62268518518522 251.7939814814815 203.41435185185188 306.01851851851853 22.164351851851855 166.95601851851856 65.972222222222243 150.40509259259264 187.90509259259261 125.23148148148151 162.90509259259264 172.39583333333334 162.21064814814818 163.36805555555557
decision_type=2 2 2 2 2 2 2 2 2 2 2 2 2 2 2 2 2 2 2 2 2 2
left_child=1 4 5 7 12 10 11 -3 15 -7 16 -4 -1 18 -6 -5 -2 -9 20 -15 -10 -20
right_child=2 3 6 8 14 9 -8 17 13 -11 -12 -13 -14 19 -16 -17 -18 -19 21 -21 -22 -23
leaf_value=-4.5417732795419647 0.60604653131846731 -1.7679240106709968 3.5050461382696994 -0.60639043429070305 -3.0199381027458694 1.9596796383844137 6.0988649731351581 -1.2477742581719906 -0.02162411341157398 2.8077115079818116 1.388353376863088 4.5690405993958283 -3.5198932186105858 0.10412747810448639 -2.3440238501323978 -0.24282629697501579 0.91642960962297193 -0.91800709874508779 0 0.32077649977964307 0 0.04579696976792022
leaf_weight=308 97 493 203 181 303 258 186 294 56 253 219 319 230 14.999999999999998 229 44 172 149 12.999999999999998 124 52 34
leaf_count=308 97 493 203 181 303 258 186 294 56 253 219 319 230 15 229 44 172 149 13 124 52 34
internal_value=-0.0103005 -2.07158 3.03439 -1.01631 -3.48961 1.78262 4.76394 -1.48905 -0.154275 2.41386 1.09508 4.21 -4.15855 0.150846 -2.76532 -0.546609 0.824707 -1.1543 0.00208697 0.306052 -0.0128705 0.0397235
internal_weight=4232 2525 1707 1455 1070 999 708 936 519 511 488 522 538 294 532 225 269 443 155 139 108 47
internal_count=4232 2525 1707 1455 1070 999 708 936 519 511 488 522 538 294 532 225 269 443 155 139 108 47
is_linear=0
shrinkage=0.0408694


Tree=10
num_leaves=21
num_cat=0
split_feature=2 2 2 2 2 2 2 2 2 2 2 2 2 2 2 2 2 2 2 2
split_gain=1.47145e+07 2.04905e+06 2.04641e+06 377652 228431 199950 168505 64235 36332.8 26034.6 10148 8622.02 7588.71 4756.89 3865.76 847.823 224.405 42.1745 1.23156 0.798409
threshold=176.27314814814818 276.79398148148152 74.710648148148167 129.68750000000003 319.0393518518519 216.78240740740745 22.164351851851855 102.25694444444446 152.08333333333334 237.78935185185188 52.488425925925931 196.23842592592595 118.80787037037038 363.42592592592598 166.95601851851856 141.78240740740742 161.74768518518519 162.90509259259264 162.55787037037041 164.06250000000003
decision_type=2 2 2 2 2 2 2 2 2 2 2 2 2 2 2 2 2 2 2 2
left_child=2 5 6 7 -3 11 -1 -4 15 -7 -8 -2 -9 -6 16 -5 -10 18 -18 -19
right_child=1 4 3 8 13 9 10 12 14 -11 -12 -13 -14 -15 -16 -17 17 19 -20 -21
leaf_value=-4.3604562155003208 0.60818047494100635 3.5948261684332494 -1.9447627263681002 -0.63083711092364259 4.6411158894838689 1.7898981387456425 -3.294753547754131 -1.3646238894370917 -0.09976684849006974 2.554510921080372 -2.5555910819924446 1.0774596540376584 -0.95006995528332316 6.1753787429779816 0.27868811779245534 -0.34057003635464123 -0.0070577096382149875 0.009576919648223518 0 0.055770889388359807
leaf_weight=308 136 374 413 163 259 299 385 426 32 231 253 295 207 126 126 60 71 29 21 18
leaf_count=308 136 374 413 163 259 299 385 426 32 231 253 295 207 126 126 60 71 29 21 18
internal_value=-0.0095834 2.89574 -2.00166 -1.08632 4.47679 1.62232 -3.49662 -1.53135 -0.181675 2.15399 -3.03442 0.942753 -1.24197 5.24977 0.113573 -0.567476 -0.0126514 0.00909927 -0.00430858 0.0385517
internal_weight=4232 1720 2512 1566 759 961 946 1046 520 530 638 431 633 385 297 223 171 139 92 47
internal_count=4232 1720 2512 1566 759 961 946 1046 520 530 638 431 633 385 297 223 171 139 92 47
is_linear=0
shrinkage=0.0408694


Tree=11
num_leaves=21
num_cat=0
split_feature=2 2 2 2 2 2 2 2 2 2 2 2 2 2 2 2 2 2 2 2
split_gain=1.35679e+07 1.91743e+06 1.86229e+06 301106 222381 217465 170532 36763 32587.3 27552.1 15618 10424.1 7704.7 3481.57 1421.11 373.542 54.9098 29.2002 5.15774 0.357998
threshold=179.80324074074079 86.747685185185205 288.31018518518528 134.0277777777778 45.428240740740755 227.71990740740742 352.95138888888897 114.17824074074075 158.62268518518522 251.7939814814815 203.41435185185188 22.164351851851855 303.47222222222229 166.95601851851856 150.40509259259264 187.90509259259261 162.90509259259264 172.39583333333334 162.21064814814818 164.06250000000003
decision_type=2 2 2 2 2 2 2 2 2 2 2 2 2 2 2 2 2 2 2 2
left_child=1 4 5 7 11 10 12 -3 14 -7 15 -1 -4 16 -5 -2 18 -15 -10 -18
right_child=2 3 6 8 -6 9 -8 -9 13 -11 -12 -13 -14 17 -16 -17 19 -19 -20 -21
leaf_value=-4.186377534749619 0.55989865947702755 -1.6177276608119457 3.199975257897822 -0.5598040142876255 -2.5273743227945826 1.8072421177756108 5.6795097362192299 -1.0499854467994756 -0.019629627646385428 2.5986267993694465 1.2818252580469824 -3.2453795922929118 4.2120359741012008 0.093607454831327111 -0.22544833200316408 0.8410429171243744 0.0092642984360966091 0.29630711679994204 0 0.05414975421191847
leaf_weight=308 97 512 182 181 514 258 177 424 56 261 219 248 341 14.999999999999998 44 172 29 124 52 18
leaf_count=308 97 512 182 181 514 258 177 424 56 261 219 248 341 15 44 172 29 124 52 18
internal_value=-0.00881833 -1.90961 2.79879 -0.935915 -3.218 1.65368 4.41154 -1.37103 -0.142427 2.23641 1.0094 -3.81479 3.90943 0.139467 -0.505008 0.758364 0.00220522 0.282488 -0.011698 0.0375872
internal_weight=4232 2525 1707 1455 1070 1007 700 936 519 519 488 556 523 294 225 269 155 139 108 47
internal_count=4232 2525 1707 1455 1070 1007 700 936 519 519 488 556 523 294 225 269 155 139 108 47
is_linear=0
shrinkage=0.0408694


Tree=12
num_leaves=19
num_cat=0
split_feature=2 2 2 2 2 2 2 2 2 2 2 2 2 2 2 2 2 2
split_gain=1.2542e+07 1.78495e+06 1.69641e+06 287776 264738 214881 121230 50670.1 34524.3 31218.8 10769.8 3858.57 3187.25 1144.13 810.303 47.571 3.59311 1.13361
threshold=184.0277777777778 87.3263888888889 292.18750000000006 137.96296296296299 237.78935185185188 35.648148148148152 357.23379629629636 210.82175925925927 114.17824074074075 158.62268518518522 61.574074074074083 166.95601851851856 196.23842592592595 150.40509259259264 125.23148148148151 162.90509259259264 162.32638888888891 164.06250000000003
decision_type=2 2 2 2 2 2 2 2 2 2 2 2 2 2 2 2 2 2
left_child=1 5 4 8 7 -1 -4 12 -3 13 -7 15 -2 -5 -10 16 -11 -17
right_child=2 3 6 9 -6 10 -8 -9 14 11 -12 -13 -14 -15 -16 17 -18 -19
leaf_value=-3.7146152959966412 0.59586208629809601 -1.5414176698162512 3.9132514910507363 -0.52898919305662062 2.6000526540355406 -2.7680995219529558 5.5566414936104609 1.6317615412769362 -1.0893332596435947 -0.01455216105128381 -2.1170673198301113 0.29018108668952813 0.97835780786354265 -0.21691655475526081 -0.79511702768545833 0.010343226609908274 0 0.054831975327165765
leaf_weight=500 102 507 429 174 382 281 176 312 282 66 303 156 281 43 160 34 41 15.999999999999998
leaf_count=500 102 507 429 174 382 281 176 312 282 66 303 156 281 43 160 34 41 16
internal_value=-0.0076261 -1.80556 2.7278 -0.874911 1.73517 -3.06067 4.45249 1.23721 -1.29834 -0.108759 -2.46123 0.151059 0.890413 -0.477723 -0.998239 0.00402885 -0.0091272 0.0355933
internal_weight=4245 2563 1682 1479 1077 1084 605 695 949 530 584 313 383 217 442 157 107 50
internal_count=4245 2563 1682 1479 1077 1084 605 695 949 530 584 313 383 217 442 157 107 50
is_linear=0
shrinkage=0.0408694


Tree=13
num_leaves=21
num_cat=0
split_feature=2 2 2 2 2 2 2 2 2 2 2 2 2 2 2 2 2 2 2 2
split_gain=1.15602e+07 1.64449e+06 1.56784e+06 265138 198481 176328 168963 34048.5 31669.4 28856 24645.6 11624.5 6767.43 3558.39 1034.9 708.368 45.0883 14.2737 3.34265 0.751844
threshold=184.0277777777778 87.3263888888889 288.31018518518528 137.96296296296299 33.391203703703717 227.71990740740742 357.23379629629636 61.574074074074083 114.17824074074075 158.62268518518522 251.7939814814815 203.41435185185188 306.01851851851853 166.95601851851856 150.40509259259264 125.23148148148151 162.90509259259264 172.39583333333334 162.32638888888891 164.06250000000003
decision_type=2 2 2 2 2 2 2 2 2 2 2 2 2 2 2 2 2 2 2 2
left_child=1 4 5 8 -1 11 12 -6 -3 14 -7 -2 -4 16 -5 -10 18 -15 -11 -18
right_child=2 3 6 9 7 10 -8 -9 15 13 -12 -13 -14 17 -16 -17 19 -19 -20 -21
leaf_value=-3.7794593323675327 0.7200873657542326 -1.4793160797455784 2.9850100213193045 -0.50824118317513156 -2.7889305086266614 1.6625643529320842 5.3385989920802945 -2.0325817844589902 -1.045937538638394 -0.014016713226527451 2.4092440993827067 1.1886968229443726 3.9101321042927757 0.085093676998191328 -0.20933913435402876 -0.76404055568663543 0.0099952912273664034 0.28924757611082225 0 0.053293659519097827
leaf_weight=352 249 507 195 174 429 249 176 303 282 66 265 223 325 12.999999999999998 43 160 34 143 41 15.999999999999998
leaf_count=352 249 507 195 174 429 249 176 303 282 66 265 223 325 13 43 160 34 143 41 16
internal_value=-0.00711115 -1.73324 2.61906 -0.839941 -2.93796 1.5519 4.09854 -2.49949 -1.24638 -0.104512 2.07655 0.956932 3.61002 0.145249 -0.459253 -0.958725 0.00396206 0.278852 -0.00878381 0.0347168
internal_weight=4245 2563 1682 1479 1084 986 696 732 949 530 514 472 520 313 217 442 157 156 107 50
internal_count=4245 2563 1682 1479 1084 986 696 732 949 530 514 472 520 313 217 442 157 156 107 50
is_linear=0
shrinkage=0.0408694


Tree=14
num_leaves=22
num_cat=0
split_feature=2 2 2 2 2 2 2 2 2 2 2 2 2 2 2 2 2 2 2 2 2
split_gain=1.06586e+07 1.51528e+06 1.44632e+06 244369 214408 183899 112528 28816 27398.4 10823.3 9555.17 7051.22 6689.59 3528.13 3287.92 1166.19 703.558 42.7483 4.11978 3.10993 0.396977
threshold=184.0277777777778 87.3263888888889 268.57638888888897 134.0277777777778 340.68287037037038 40.56712962962964 216.78240740740745 158.62268518518522 109.31712962962963 237.78935185185188 297.1643518518519 65.972222222222243 1.0000000180025095e-35 198.95833333333334 166.95601851851856 141.78240740740742 122.28009259259261 162.90509259259264 172.39583333333334 162.32638888888891 164.06250000000003
decision_type=2 2 2 2 2 2 2 2 2 2 2 2 2 2 2 2 2 2 2 2 2
left_child=1 5 6 8 10 12 13 15 -3 -8 -4 -7 -1 -2 17 -5 -10 19 -16 -9 -19
right_child=2 3 4 7 -6 11 9 14 16 -11 -12 -13 -14 -15 18 -17 -18 20 -20 -21 -22
leaf_value=-3.7340667945541859 0.67739238365682264 -1.4368250465620878 2.6426027926315583 -0.52690927545120625 4.7780889999693645 -2.4813493137273461 1.5215290983691097 -0.013500966814330162 -1.0349604260814822 2.1086272789053466 3.4896247602428101 -1.8925918177529701 -2.8710365246478311 1.0142814356204772 0.082867443142670486 -0.26758049131884426 -0.76417784991402271 0.0096590608570929111 0.27800097736910356 0 0.051798501033045515
leaf_weight=293 232 474 208 155 277 318 296 66 286 198 304 250 223 167 12.999999999999998 76 175 34 143 41 15.999999999999998
leaf_count=293 232 474 208 155 277 318 296 66 286 198 304 250 223 167 13 76 175 34 143 41 16
internal_value=-0.00638711 -1.66384 2.51529 -0.806342 3.78552 -2.82027 1.37099 -0.114338 -1.2046 1.78482 3.1882 -2.25013 -3.40703 0.834927 0.139796 -0.453815 -0.946412 0.00389554 0.268224 -0.00845305 0.0338664
internal_weight=4245 2563 1682 1479 789 1084 893 544 935 494 512 568 516 399 313 231 461 157 156 107 50
internal_count=4245 2563 1682 1479 789 1084 893 544 935 494 512 568 516 399 313 231 461 157 156 107 50
is_linear=0
shrinkage=0.0408694


Tree=15
num_leaves=21
num_cat=0
split_feature=2 2 2 2 2 2 2 2 2 2 2 2 2 2 2 2 2 2 2 2
split_gain=9.82822e+06 1.39154e+06 1.3553e+06 260500 229178 109431 93159.3 47678.3 27850.2 15070.2 5904.5 3825.61 2510.93 1445.79 775.882 158.161 145.709 31.2022 0.752511 0.0674505
threshold=176.27314814814818 266.37731481481484 70.717592592592595 128.53009259259264 322.04861111111114 22.164351851851855 216.78240740740745 102.25694444444446 152.08333333333334 368.17129629629636 191.78240740740742 118.80787037037038 166.95601851851856 57.349537037037045 141.78240740740742 237.78935185185188 161.74768518518519 162.90509259259264 162.55787037037041 164.06250000000003
decision_type=2 2 2 2 2 2 2 2 2 2 2 2 2 2 2 2 2 2 2 2
left_child=2 6 5 7 -3 -1 10 -4 14 -6 -2 -9 16 -7 -5 -8 -10 18 -18 -19
right_child=1 4 3 8 9 13 15 11 12 -11 -12 -13 -14 -15 -16 -17 17 19 -20 -21
leaf_value=-3.5686960110698021 0.46584921650371897 2.8620684473440408 -1.6027262980072405 -0.53691835407141875 3.788359917706229 -2.6542316163560886 1.460843453563744 -1.103013993189248 -0.082691534043823262 5.1386415691651735 0.87292257145512286 -0.77855686378107436 0.22682525829650743 -2.0665998281098861 -0.28046312038117244 1.9061190989704848 -0.0049089935452708705 0.0093341405071504843 0 0.050345292112811212
leaf_weight=305 115 461 450 187 238 407 296 425 28 136 314 194 126 206 60 152 72 34 23 15.999999999999998
leaf_count=305 115 461 450 187 238 407 296 425 28 136 314 194 126 206 60 152 72 34 23 16
internal_value=-0.00600483 2.38018 -1.62111 -0.901248 3.56962 -2.87006 1.22718 -1.27025 -0.170948 4.36932 0.774198 -1.01213 0.0934297 -2.48397 -0.485787 1.64082 -0.007126 0.00853734 -0.00252883 0.0330411
internal_weight=4245 1712 2533 1615 835 918 877 1069 546 374 429 619 299 613 247 448 173 145 95 50
internal_count=4245 1712 2533 1615 835 918 877 1069 546 374 429 619 299 613 247 448 173 145 95 50
is_linear=0
shrinkage=0.0408694


Tree=16
num_leaves=21
num_cat=0
split_feature=2 2 2 2 2 2 2 2 2 2 2 2 2 2 2 2 2 2 2 2
split_gain=9.06227e+06 1.26771e+06 1.26265e+06 244671 145042 139631 106564 42918.9 25125.4 18383.9 10690 7916.9 4519.33 4220.53 2769.59 511.324 338.639 136.699 29.6837 0.711697
threshold=179.80324074074079 74.710648148148167 288.31018518518528 129.68750000000003 227.71990740740742 359.2592592592593 22.164351851851855 102.25694444444446 152.08333333333334 251.7939814814815 203.41435185185188 306.01851851851853 58.622685185185198 118.80787037037038 166.95601851851856 141.78240740740742 187.90509259259261 161.74768518518519 162.90509259259264 162.55787037037041
decision_type=2 2 2 2 2 2 2 2 2 2 2 2 2 2 2 2 2 2 2 2
left_child=1 6 4 7 10 11 -1 -3 15 -6 16 -4 -8 -9 17 -5 -2 -10 19 -19
right_child=2 3 5 8 9 -7 12 13 14 -11 -12 -13 -14 -15 -16 -17 -18 18 -20 -21
leaf_value=-3.4262586544593532 0.44120543976536031 -1.5280597428091918 2.6368868628635651 -0.50088279011603809 1.4738615378371891 4.797588360726202 -2.5128318820733448 -1.0586965779632309 -0.080011484965550245 2.1263497398638953 1.0527887121142006 3.4760335239397153 -1.8911887607517923 -0.74304446110418798 0.23228498140130738 -0.27024530897287768 0.68466313332617457 -0.0047268532958969402 0.032240328218405279 0
leaf_weight=305 87 433 195 171 249 166 460 425 28 265 223 335 170 210 140 60 178 72 50 23
leaf_count=305 87 433 195 171 249 166 460 425 28 265 223 335 170 210 140 60 178 72 50 23
internal_value=-0.00546679 -1.5458 2.30156 -0.84469 1.35645 3.6335 -2.73828 -1.20211 -0.13575 1.836 0.831033 3.20798 -2.36922 -0.96447 0.101968 -0.452505 0.61995 -0.0067756 0.00833088 -0.00238764
internal_weight=4245 2547 1698 1612 1002 696 935 1068 544 514 488 530 630 635 313 231 265 173 145 95
internal_count=4245 2547 1698 1612 1002 696 935 1068 544 514 488 530 630 635 313 231 265 173 145 95
is_linear=0
shrinkage=0.0408694


Tree=17
num_leaves=22
num_cat=0
split_feature=2 2 2 2 2 2 2 2 2 2 2 2 2 2 2 2 2 2 2 2 2
split_gain=8.35668e+06 1.19192e+06 1.14336e+06 185619 181867 151726 83552.2 34250.1 20962.4 20915 6707.92 3979.65 2562.57 2277.4 721.595 360.568 339.533 35.2754 11.8224 2.40988 0.581159
threshold=184.0277777777778 91.030092592592609 294.27083333333343 137.96296296296299 237.78935185185188 45.428240740740755 363.42592592592598 210.82175925925927 158.62268518518522 114.17824074074075 1.0000000180025095e-35 65.972222222222243 166.95601851851856 196.23842592592595 150.40509259259264 126.44675925925928 260.8217592592593 162.90509259259264 172.39583333333334 162.55787037037041 164.06250000000003
decision_type=2 2 2 2 2 2 2 2 2 2 2 2 2 2 2 2 2 2 2 2 2
left_child=1 5 4 9 7 10 -4 13 14 -3 -1 -7 17 -2 -5 -11 -6 19 -14 -10 -19
right_child=2 3 6 8 16 11 -8 -9 12 15 -12 -13 18 -15 -16 -17 -18 20 -20 -21 -22
leaf_value=-3.3062490790284427 0.47984057862632645 -1.2423383232604002 3.2557547241845861 -0.43248821968159207 1.6636196898052849 -2.1742664720841538 4.695004460517918 1.3346882913434648 -0.010429396270992194 -0.88064644561079719 -2.5457297352930328 -1.6772143716667116 0.068688169872323804 0.79857102979532257 -0.17848493894403586 -0.64094144408210729 2.2858462285623227 0.0079356209849252256 0.24648177910226507 0 0.048028345624793606
leaf_weight=293 102 491 443 174 123 302 148 312 84 294 239 266 12.999999999999998 281 43 148 273 34 143 23 15.999999999999998
leaf_count=293 102 491 443 174 123 302 148 312 84 294 239 266 13 281 43 148 273 34 143 23 16
internal_value=-0.00489205 -1.47251 2.22793 -0.702312 1.4274 -2.48517 3.66968 1.01028 -0.0886924 -1.04713 -3.00433 -1.96634 0.124061 0.725118 -0.391102 -0.812858 2.12706 0.00380728 0.237451 -0.00718834 0.0310907
internal_weight=4245 2563 1682 1463 1091 1100 591 695 530 933 532 568 313 383 217 442 396 157 156 107 50
internal_count=4245 2563 1682 1463 1091 1100 591 695 530 933 532 568 313 383 217 442 396 157 156 107 50
is_linear=0
shrinkage=0.0408694


Tree=18
num_leaves=18
num_cat=0
split_feature=2 2 2 2 2 2 2 2 2 2 2 2 2 2 2 2 2
split_gain=7.72691e+06 1.08142e+06 1.04805e+06 200815 177644 89401.8 69899.7 31168 29563 7142.36 4530.09 4096.86 1896.63 1599.42 69.8496 22.5422 0.56503
threshold=176.27314814814818 70.717592592592595 265.45138888888897 127.25694444444446 315.85648148148158 22.164351851851855 216.78240740740745 152.08333333333334 99.247685185185205 371.46990740740745 196.23842592592595 49.363425925925931 166.95601851851856 141.78240740740742 161.74768518518519 162.90509259259264 162.55787037037041
decision_type=2 2 2 2 2 2 2 2 2 2 2 2 2 2 2 2 2
left_child=1 5 6 8 -4 -1 10 13 -3 -6 -2 -7 14 -5 -9 16 -16
right_child=2 3 4 7 9 11 -8 12 -10 -11 -12 -13 -14 -15 15 -17 -18
leaf_value=-3.1593407193246152 0.43705549912503178 -1.4263121883377794 2.480442087886253 -0.53464543578731705 3.4048471713548101 -2.3996476917790357 1.4366832907634606 -0.057097709317668187 -0.9337431364954234 4.6422774252202359 0.77916782646032701 -1.8713023937941562 0.20226817009017997 -0.23833570658917277 -0.0041984323876735627 0.028536028261785144 0
leaf_weight=321 137 440 461 271 292 356 438 27 545 96 286 263 124 59 70 47 22
leaf_count=321 137 440 461 271 292 356 438 27 545 96 286 263 124 59 70 47 22
internal_value=-0.0271161 -1.45329 2.09243 -0.802186 3.10748 -2.5499 1.0734 -0.221562 -1.16299 3.79202 0.678447 -2.20015 0.0861457 -0.488972 -0.00353788 0.00691195 -0.00205388
internal_weight=4255 2545 1710 1605 849 940 861 620 985 388 423 619 290 330 166 139 92
internal_count=4255 2545 1710 1605 849 940 861 620 985 388 423 619 290 330 166 139 92
is_linear=0
shrinkage=0.0408694


Tree=19
num_leaves=22
num_cat=0
split_feature=2 2 2 2 2 2 2 2 2 2 2 2 2 2 2 2 2 2 2 2 2
split_gain=7.1232e+06 997077 967977 181756 141258 86087.3 80044.9 33102.4 19802.8 7597.23 5612.87 5142.16 4219.27 2996.46 1754.69 629.209 69.0909 65.3487 21.0205 0.534435 0.125567
threshold=176.27314814814818 74.710648148148167 267.76620370370375 128.53009259259264 315.85648148148158 22.164351851851855 216.78240740740745 99.247685185185205 152.08333333333334 375.00000000000006 52.025462962962969 237.78935185185188 197.85879629629633 118.80787037037038 166.95601851851856 141.78240740740742 184.0277777777778 161.74768518518519 162.90509259259264 162.55787037037041 163.36805555555557
decision_type=2 2 2 2 2 2 2 2 2 2 2 2 2 2 2 2 2 2 2 2 2
left_child=1 5 6 7 -4 -1 12 -3 15 -6 -7 -8 16 -9 17 -5 -2 -10 19 -19 -20
right_child=2 3 4 8 9 10 11 13 14 -11 -12 -13 -14 -15 -16 -17 -18 18 20 -21 -22
leaf_value=-3.033094424831249 0.25550912908592871 -1.3612334724400479 2.4204774051901223 -0.45546415397295886 3.2886972481399788 -2.2922450192608452 1.2353825168001433 -0.93964373280747526 -0.055261239329661802 4.5292502280198974 -1.7708833959478147 1.6859712295840337 0.81111453034657477 -0.65896988290336866 0.19446168477558062 -0.22966863436120977 0.52246627628320896 -0.0040430656027997652 0 0 0.032858325834603068
leaf_weight=321 29 426 414 185 302 373 289 436 27 86 260 196 190 195 124 59 204 70 15.999999999999998 22 31
leaf_count=321 29 426 414 185 302 373 289 436 27 86 260 196 190 195 124 59 204 70 16 22 31
internal_value=-0.0258115 -1.39514 2.00924 -0.762628 3.03997 -2.43584 1.08147 -1.07147 -0.144486 3.64316 -2.10128 1.44048 0.651596 -0.861968 0.0827658 -0.410464 0.499413 -0.0034213 0.0066194 -0.00193293 0.0275267
internal_weight=4255 2545 1710 1591 802 954 908 1057 534 388 633 485 423 631 290 244 233 166 139 92 47
internal_count=4255 2545 1710 1591 802 954 908 1057 534 388 633 485 423 631 290 244 233 166 139 92 47
is_linear=0
shrinkage=0.0408694


Tree=20
num_leaves=21
num_cat=0
split_feature=2 2 2 2 2 2 2 2 2 2 2 2 2 2 2 2 2 2 2 2
split_gain=6.56848e+06 919251 894684 145714 105315 104007 94213.7 22575.1 14826.4 14717.8 9893.89 8821.15 1622.3 916.28 426.226 260.829 61.2674 29.5902 19.8761 0.50544
threshold=176.27314814814818 81.655092592592609 284.95370370370375 134.0277777777778 227.71990740740742 23.437500000000004 346.87500000000006 105.4976851851852 152.08333333333334 61.574074074074083 254.57175925925927 203.41435185185188 166.95601851851856 121.46990740740742 186.86342592592595 145.02314814814818 161.74768518518519 300.69444444444451 162.90509259259264 162.55787037037041
decision_type=2 2 2 2 2 2 2 2 2 2 2 2 2 2 2 2 2 2 2 2
left_child=1 5 4 7 11 -1 17 -3 15 -7 -6 14 16 -9 -2 -5 -10 -4 19 -18
right_child=2 3 6 8 10 9 -8 13 12 -11 -12 -13 -14 -15 -16 -17 18 -19 -20 -21
leaf_value=-2.8637630846574336 0.35877563849047595 -1.1758103258158874 2.0920930566982494 -0.40057280575786502 1.2712981998016251 -2.1159323522220874 3.7679403312675381 -0.83407205745598745 -0.053483834864294637 -1.5541415803060237 1.7885355150490181 0.8908925519687485 0.18695648277721399 -0.61569594337003297 0.56635973740284018 -0.20361525253192711 -0.0038934482934706782 2.7815174432632586 0.026760166736315594 0
leaf_weight=358 96 484 150 161 261 433 245 295 27 261 244 219 124 215 180 48 70 315 47 22
leaf_count=358 96 484 150 161 261 433 245 295 27 261 244 219 124 215 180 48 70 315 47 22
internal_value=-0.0244573 -1.33939 1.92975 -0.681686 1.12843 -2.26136 3.0349 -0.966111 -0.108686 -1.92353 1.54381 0.687692 0.0795551 -0.752657 0.506455 -0.365292 -0.00324291 2.59564 0.00641392 -0.00181646
internal_weight=4255 2545 1710 1493 1000 1052 710 994 499 694 505 495 290 510 276 209 166 465 139 92
internal_count=4255 2545 1710 1493 1000 1052 710 994 499 694 505 495 290 510 276 209 166 465 139 92
is_linear=0
shrinkage=0.0408694


Tree=21
num_leaves=23
num_cat=0
split_feature=2 2 2 2 2 2 2 2 2 2 2 2 2 2 2 2 2 2 2 2 2 0
split_gain=6.0563e+06 847516 825116 157135 96870.1 87824.3 70427.1 30049.4 16886.2 8199.15 6378.9 3367.08 2388.71 2297.24 1500.95 514.745 217.048 57.3176 18.5785 1.47015 0.65095 0.173484
threshold=176.27314814814818 70.717592592592595 278.76157407407413 128.53009259259264 343.80787037037044 220.89120370370372 22.164351851851855 99.247685185185205 152.08333333333334 244.44444444444449 198.95833333333334 49.363425925925931 118.80787037037038 300.69444444444451 166.95601851851856 141.78240740740742 186.86342592592595 161.74768518518519 163.36805555555557 172.39583333333334 162.55787037037041 26.793981481481485
decision_type=2 2 2 2 2 2 2 2 2 2 2 2 2 2 2 2 2 2 2 2 2 2
left_child=1 6 5 7 13 10 -1 -3 15 -7 16 -8 -9 -4 17 -5 -2 -10 20 -16 -19 -20
right_child=2 3 4 8 -6 9 11 12 14 -11 -12 -13 -14 -15 19 -17 -18 18 21 -21 -22 -23
leaf_value=-2.797458532698772 0.34514995976496926 -1.2625832450921135 2.0069788669263824 -0.42020785520852988 3.5901623829419416 1.1789985542812667 -2.1239003443438822 -0.86343328943480846 -0.051763600545566113 1.657259197186101 0.81828888472190564 -1.6536502039851899 -0.60809521832305113 2.6547999309147858 0.051782326565039387 -0.21257691736149464 0.53358643599550837 -0.0037493674753738067 0 0.18893465870506349 0.00010583024692537565 0.033254870826291916
leaf_weight=321 96 440 178 185 258 255 356 436 27 246 211 263 195 302 13.999999999999998 59 164 70 5.0000000000000027 110 38 26
leaf_count=321 96 440 178 185 258 255 356 436 27 246 211 263 195 302 14 59 164 70 5 110 38 26
internal_value=-0.0231794 -1.28581 1.85329 -0.709379 2.87965 1.05799 -2.25663 -0.993429 -0.133346 1.43494 0.640534 -1.94626 -0.792915 2.44895 0.0764314 -0.378975 0.4766 -0.0031347 0.00613872 0.179741 0 0.0308866
internal_weight=4255 2545 1710 1605 738 972 940 1071 534 501 471 619 631 480 290 244 260 166 139 124 108 31
internal_count=4255 2545 1710 1605 738 972 940 1071 534 501 471 619 631 480 290 244 260 166 139 124 108 31
is_linear=0
shrinkage=0.0408694


Tree=22
num_leaves=21
num_cat=0
split_feature=2 2 2 2 2 2 2 2 2 2 2 2 2 2 2 2 2 2 2 2
split_gain=5.58413e+06 782788 762370 130775 110336 107071 49904.5 15596.1 13364.3 12632.4 5368.78 3303.58 1391.22 1167.15 198.3 53.7724 17.6153 5.90547 0.451701 0.117729
threshold=176.27314814814818 91.030092592592609 265.45138888888897 314.64120370370375 134.0277777777778 45.428240740740755 216.78240740740745 375.00000000000006 110.47453703703705 152.08333333333334 1.0000000180025095e-35 191.78240740740742 166.95601851851856 64.178240740740748 145.02314814814818 161.74768518518519 162.90509259259264 203.41435185185188 162.55787037037041 164.06250000000003
decision_type=2 2 2 2 2 2 2 2 2 2 2 2 2 2 2 2 2 2 2 2
left_child=1 5 6 -4 8 10 11 -5 -3 14 -1 -2 15 -7 -6 -11 18 -13 -17 -18
right_child=2 4 3 7 9 13 -8 -9 -10 12 -12 17 -14 -15 -16 16 19 -19 -20 -21
leaf_value=-2.7043841750718487 0.35605195478008417 -1.0168774011483439 2.0948634399775687 2.8906998639466961 -0.36903916029711281 -1.7734532370565348 1.2178022531725203 4.0814728512692371 -0.67006201457935743 -0.050098692297736433 -2.0905820976480407 0.53579170866622028 0.1730466973445326 -1.3875150995365131 -0.18885327636894997 -0.0036106190343580466 0.0032251242725085684 0.74749159427733836 0 0.037504647356467843
leaf_weight=305 124 476 450 313 161 268 438 86 448 27 258 152 124 291 48 70 30 147 22 17
leaf_count=305 124 476 450 313 161 268 438 86 448 27 258 152 124 291 48 70 30 147 22 17
internal_value=-0.0220072 -1.23443 1.77982 2.64556 -0.592809 -2.03878 0.910683 3.21698 -0.855661 -0.100098 -2.45408 0.576613 0.0735836 -1.59363 -0.336982 -0.00294807 0.00596938 0.656314 -0.00159725 0.0251617
internal_weight=4255 2545 1710 849 1423 1122 861 399 924 499 563 423 290 559 209 166 139 299 92 47
internal_count=4255 2545 1710 849 1423 1122 861 399 924 499 563 423 290 559 209 166 139 299 92 47
is_linear=0
shrinkage=0.0408694


Tree=23
num_leaves=23
num_cat=0
split_feature=2 2 2 2 2 2 2 2 2 2 2 2 2 2 2 2 2 2 2 2 2 2
split_gain=5.14885e+06 721851 705992 102670 101584 98669.1 61240.2 14016.4 12331.8 11682.2 7605.53 3468.61 1356.69 1285.6 308.713 259.086 179.252 162.696 50.4917 16.8411 3.18712 0.426982
threshold=176.27314814814818 91.030092592592609 290.33564814814821 230.38194444444449 134.0277777777778 35.648148148148152 363.42592592592598 257.00231481481484 109.31712962962963 152.08333333333334 203.41435185185188 63.831018518518526 1.0000000180025095e-35 166.95601851851856 186.86342592592595 122.97453703703705 141.78240740740742 306.01851851851853 161.74768518518519 162.90509259259264 172.39583333333334 162.55787037037041
decision_type=2 2 2 2 2 2 2 2 2 2 2 2 2 2 2 2 2 2 2 2 2 2
left_child=1 5 3 10 8 12 17 -5 -3 16 14 -7 -1 18 -2 -10 -6 -4 -11 21 -15 -20
right_child=2 4 6 7 9 11 -8 -9 15 13 -12 -13 -14 20 -16 -17 -18 -19 19 -21 -22 -23
leaf_value=-2.5964440832486773 0.31851955863651088 -0.98174819279858738 2.0021382753450512 1.1944491037510483 -0.36051576120476153 -1.7448941159842493 3.7141406874339729 1.7238551501687265 -0.706272229485856 -0.048487334972025106 0.79876656645874355 -1.3450061845542358 -2.0153355352006601 0.045745145243216635 0.50222065409703653 -0.51897406839801863 -0.19675726588870165 2.6528100995265009 -0.0034770045222257346 0.024609102148817719 0.1750623458145171 0
leaf_weight=305 96 460 150 326 150 283 128 234 297 27 233 311 223 13.999999999999998 180 167 59 363 70 47 110 22
leaf_count=305 96 460 150 326 150 283 128 234 297 27 233 311 223 14 180 167 59 363 70 47 110 22
internal_value=-0.0209714 -1.18518 1.7092 1.05394 -0.569032 -1.95759 2.77728 1.43561 -0.821247 -0.0962319 0.619 -1.55497 -2.3825 0.0707537 0.44937 -0.648663 -0.324043 2.49399 -0.00274265 0.00583486 0.166368 -0.00149323
internal_weight=4255 2545 1710 1069 1423 1122 641 560 924 499 509 594 528 290 276 464 209 513 166 139 124 92
internal_count=4255 2545 1710 1069 1423 1122 641 560 924 499 509 594 528 290 276 464 209 513 166 139 124 92
is_linear=0
shrinkage=0.0408694


Tree=24
num_leaves=21
num_cat=0
split_feature=2 2 2 2 2 2 2 2 2 2 2 2 2 2 2 2 2 2 2 2
split_gain=4.85695e+06 688884 684212 105004 102967 89482.5 62943.3 17324.6 12024.6 11569.8 3395.22 1516.32 1477.87 994.411 785.877 312.626 272.057 60.6849 4.22655 0.0357352
threshold=184.0277777777778 294.27083333333343 91.030092592592609 137.96296296296299 234.08564814814818 45.428240740740755 370.42824074074082 209.54861111111114 158.62268518518522 106.88657407407409 1.0000000180025095e-35 65.972222222222243 172.39583333333334 191.78240740740742 121.46990740740742 260.8217592592593 150.40509259259264 164.06250000000003 162.55787037037041 162.32638888888891
decision_type=2 2 2 2 2 2 2 2 2 2 2 2 2 2 2 2 2 2 2 2
left_child=2 4 5 9 7 10 -3 13 16 -4 -1 -7 17 -2 -11 -6 -5 18 19 -10
right_child=1 6 3 8 15 11 -8 -9 12 14 -12 -13 -14 -15 -16 -17 -18 -19 -20 -21
leaf_value=-2.4910073317188401 0.34497555189763457 2.4828256785953369 -0.94859429087096425 -0.32600871294414008 1.2564279478885871 -1.6266590116175998 3.7382381409760406 0.96432954519442693 -0.0092476787688022186 -0.70448246546096516 -1.9214674082190091 -1.2664750059892476 0.18503023441333405 0.57886243463221354 -0.51742323079371899 1.7069244542576119 -0.14437452209995011 0.053645163772700205 0.0033914511695330714 0
leaf_weight=296 92 500 434 170 140 309 122 327 75 286 240 272 148 273 230 266 42 32 50 13.999999999999998
leaf_count=296 92 500 434 170 140 309 122 327 75 286 240 272 148 273 230 266 42 32 50 14
internal_value=0.00725126 1.68786 -1.10687 -0.526378 1.06019 -1.86782 2.77015 0.742978 -0.0638453 -0.7821 -2.26588 -1.47643 0.0936366 0.528737 -0.630133 1.57735 -0.29756 0.00831814 -0.00198895 -0.00851282
internal_weight=4318 1720 2598 1481 1098 1117 622 692 531 950 536 581 319 365 516 406 212 171 139 89
internal_count=4318 1720 2598 1481 1098 1117 622 692 531 950 536 581 319 365 516 406 212 171 139 89
is_linear=0
shrinkage=0.0408694


Tree=25
num_leaves=21
num_cat=0
split_feature=2 2 2 2 2 2 2 2 2 2 2 2 2 2 2 2 2 2 2 2
split_gain=4.47843e+06 634942 630855 96755 95024.1 82502.7 59644.7 15977.6 11118.9 10658.1 3053.08 1364.32 1362.7 1089.17 260.374 241.187 200.357 56.6817 3.9641 0.0510299
threshold=184.0277777777778 294.27083333333343 91.030092592592609 137.96296296296299 234.08564814814818 45.428240740740755 375.00000000000006 210.12731481481487 158.62268518518522 110.47453703703705 1.0000000180025095e-35 65.972222222222243 172.39583333333334 198.32175925925927 125.23148148148151 150.40509259259264 260.8217592592593 164.06250000000003 162.55787037037041 162.21064814814818
decision_type=2 2 2 2 2 2 2 2 2 2 2 2 2 2 2 2 2 2 2 2
left_child=2 4 5 9 7 10 -3 13 15 -4 -1 -7 17 -2 -11 -5 -6 18 19 -10
right_child=1 6 3 8 16 11 -8 -9 12 14 -12 -13 -14 -15 -16 -17 -18 -19 -20 -21
leaf_value=-2.3916543702481046 0.42048230175548257 2.4109528708914447 -0.89372102361148442 -0.31323410552813158 1.2076260090946471 -1.561714478916292 3.7281880758721018 0.93701555071350384 -0.010123194961809237 -0.64113880058002237 -1.8452588604883449 -1.2160692550480114 0.17782399703116847 0.62591980253947455 -0.46721015247492881 -0.13934854559800386 1.6390289066062729 0.051860334547881845 0.003270520137460515 0
leaf_weight=296 223 524 486 170 140 309 98 310 57 301 240 272 148 159 163 42 266 32 50 32
leaf_count=296 223 524 486 170 140 309 98 310 57 301 240 272 148 159 163 42 266 32 50 32
internal_value=0.00704503 1.62084 -1.06278 -0.505369 1.01822 -1.79346 2.65991 0.713459 -0.0613468 -0.750842 -2.17573 -1.41758 0.0900574 0.516995 -0.588941 -0.286102 1.51506 0.00804478 -0.00184258 -0.00821849
internal_weight=4318 1720 2598 1481 1098 1117 622 692 531 950 536 581 319 382 464 212 406 171 139 89
internal_count=4318 1720 2598 1481 1098 1117 622 692 531 950 536 581 319 382 464 212 406 171 139 89
is_linear=0
shrinkage=0.0408694


Tree=26
num_leaves=19
num_cat=0
split_feature=2 2 2 2 2 2 2 2 2 2 2 2 2 2 2 2 2 2
split_gain=4.12958e+06 585562 581672 91361 89145.4 76212.9 53620.6 14686.5 10588.2 10281 9906.73 1256.81 793.179 698.286 509.581 213.274 52.9858 3.7459
threshold=184.0277777777778 297.1643518518519 91.030092592592609 234.08564814814818 137.96296296296299 47.048611111111121 375.00000000000006 209.08564814814818 1.0000000180025095e-35 158.62268518518522 105.4976851851852 172.39583333333334 121.46990740740742 191.78240740740742 260.8217592592593 150.40509259259264 164.06250000000003 162.55787037037041
decision_type=2 2 2 2 2 2 2 2 2 2 2 2 2 2 2 2 2 2
left_child=2 3 5 7 10 8 -3 13 -1 15 -4 16 -12 -2 -5 -6 17 -11
right_child=1 6 4 14 9 -7 -8 -9 -10 11 12 -13 -14 -15 -16 -17 -18 -19
leaf_value=-2.2962640978944253 0.31599394520067942 2.3266145121212518 -0.88033303614518199 1.1607196248583143 -0.30096007036176814 -1.290526022722412 3.5863933768460194 0.87803432282092786 -1.7489743970639289 -0.0079736271551686128 -0.65273759947535781 0.17089842181107173 -0.47641422701977004 0.52386481975927057 1.5815840981675711 -0.13449754320884527 0.050134888283720085 0.003153901351460358
leaf_weight=296 92 512 418 140 170 478 98 346 343 89 302 148 230 254 278 42 32 50
leaf_count=296 92 512 418 140 170 478 98 346 343 89 302 148 230 254 278 42 32 50
internal_value=0.00687157 1.55654 -1.02044 0.986342 -0.485185 -1.72206 2.56961 0.685187 -2.02611 -0.0589524 -0.720808 0.086605 -0.584617 0.477219 1.46378 -0.275088 0.00775918 -0.00172707
internal_weight=4318 1720 2598 1110 1481 1117 610 692 639 531 950 319 532 346 418 212 171 139
internal_count=4318 1720 2598 1110 1481 1117 610 692 639 531 950 319 532 346 418 212 171 139
is_linear=0
shrinkage=0.0408694


Tree=27
num_leaves=20
num_cat=0
split_feature=2 2 2 2 2 2 2 2 2 2 2 2 2 2 2 2 2 2 2
split_gain=3.80734e+06 539816 536071 84729.5 84300.3 67162.3 51157.5 13686.6 10216.8 9507.55 2584.4 1222.56 1158.53 865.423 389.028 189.543 49.4641 3.49488 0.0593524
threshold=184.0277777777778 297.1643518518519 87.3263888888889 137.96296296296299 234.08564814814818 35.648148148148152 368.17129629629636 210.82175925925927 105.03472222222224 158.62268518518522 61.574074074074083 198.32175925925927 172.39583333333334 121.46990740740742 260.8217592592593 141.78240740740742 164.06250000000003 162.55787037037041 162.09490740740742
decision_type=2 2 2 2 2 2 2 2 2 2 2 2 2 2 2 2 2 2 2
left_child=2 4 5 8 7 -1 -3 11 -4 15 -7 -2 16 -10 -6 -5 17 18 -11
right_child=1 6 3 9 14 10 -8 -9 13 12 -12 -13 -14 -15 -16 -17 -18 -19 -20
leaf_value=-2.0293202964179438 0.38650578479748249 2.1915221335230832 -0.86110908300713673 -0.30279879778368679 1.1156351982310129 -1.496228470768465 3.2890845842021461 0.87497369154544358 -0.63078932518544684 -0.010402430990316767 -1.1518473488107619 0.58578350865070805 0.1642425707396539 -0.45754309718821357 1.518601448824354 -0.1647737112145386 0.048466849650230216 0.0030414407257000568 0
leaf_weight=502 223 477 420 140 140 286 133 294 320 46 309 175 148 230 278 72 32 50 43
leaf_count=502 223 477 420 140 140 286 133 294 320 46 309 175 148 230 278 72 32 50 43
internal_value=0.00678467 1.49477 -0.979631 -0.473705 0.947272 -1.66386 2.46747 0.657956 -0.699543 -0.0566393 -1.33408 0.483935 0.0833053 -0.565891 1.40591 -0.2645 0.00751797 -0.00157289 -0.00767248
internal_weight=4318 1720 2598 1501 1110 1097 610 692 970 531 595 398 319 550 418 212 171 139 89
internal_count=4318 1720 2598 1501 1110 1097 610 692 970 531 595 398 319 550 418 212 171 139 89
is_linear=0
shrinkage=0.0408694


Tree=28
num_leaves=20
num_cat=0
split_feature=2 2 2 2 2 2 2 2 2 2 2 2 2 2 2 2 2 2 2
split_gain=3.51014e+06 497710 494018 82240.9 68005 57488.2 55155.9 11452.6 10739.3 8794.7 7259.58 3936.55 1608.65 1068.61 514.379 176.715 46.2644 3.31976 0.0160046
threshold=184.0277777777778 291.14583333333343 82.581018518518533 137.96296296296299 230.38194444444449 33.391203703703717 368.17129629629636 103.99305555555557 256.30787037037044 158.62268518518522 61.574074074074083 203.41435185185188 118.80787037037038 172.39583333333334 311.57407407407413 150.40509259259264 164.06250000000003 162.55787037037041 162.21064814814818
decision_type=2 2 2 2 2 2 2 2 2 2 2 2 2 2 2 2 2 2 2
left_child=2 4 5 7 11 -1 14 -4 -6 15 -7 -2 -9 16 -3 -5 17 18 -11
right_child=1 6 3 9 8 10 -8 12 -10 13 -12 -13 -14 -15 -16 -17 -18 -19 -20
leaf_value=-2.0634952084534501 0.3834861830216858 1.6215589375253496 -0.87880368040306334 -0.27825631579139942 0.96409100799877911 -1.5092896689942203 3.1616635116283165 -0.63038481577144889 1.4093453067163895 -0.0091635330110248318 -1.1152588056118755 0.64648192573043395 -0.44460320822906324 0.1578459447946842 2.1869060764839214 -0.12407931056407058 0.046854308120887145 0.0029329902066291451 0
leaf_weight=357 252 133 360 170 304 431 133 400 267 57 274 247 245 148 384 42 32 50 32
leaf_count=357 252 133 360 170 304 431 133 400 267 57 274 247 245 148 384 42 32 50 32
internal_value=0.00671787 1.43545 -0.940413 -0.467858 0.883289 -1.6157 2.32394 -0.68398 1.18805 -0.0544586 -1.36963 0.521779 -0.566101 0.0801075 2.06674 -0.25439 0.00723731 -0.0014817 -0.00746942
internal_weight=4318 1720 2598 1536 1070 1062 650 1005 571 531 705 499 645 319 517 212 171 139 89
internal_count=4318 1720 2598 1536 1070 1062 650 1005 571 531 705 499 645 319 517 212 171 139 89
is_linear=0
shrinkage=0.0408694


Tree=29
num_leaves=20
num_cat=0
split_feature=2 2 2 2 2 2 2 2 2 2 2 2 2 2 2 2 2 2 2
split_gain=3.23662e+06 459319 455606 67836.5 62995.8 62665.6 52102.4 9922.2 9640.56 8132.61 7128.45 3622.62 2614.72 985.431 206.726 162.243 43.2484 29.1532 3.13728
threshold=184.0277777777778 291.14583333333343 91.840277777777786 137.96296296296299 47.048611111111121 230.38194444444449 375.00000000000006 255.61342592592595 1.0000000180025095e-35 158.62268518518522 115.33564814814817 203.41435185185188 311.57407407407413 172.39583333333334 97.858796296296319 141.78240740740742 164.06250000000003 126.44675925925928 162.55787037037041
decision_type=2 2 2 2 2 2 2 2 2 2 2 2 2 2 2 2 2 2 2
left_child=2 5 4 10 8 11 12 -7 -1 15 14 -2 -3 16 -4 -5 18 -12 -11
right_child=1 6 3 9 -6 7 -8 -9 -10 13 17 -13 -14 -15 -16 -17 -18 -19 -20
leaf_value=-2.0414381593566948 0.36825505967802025 1.5587387098816308 -0.86036829205091903 -0.28022956863563281 -1.134478083841957 0.91343226540224309 3.2046493555576623 1.3406306770314389 -1.5419589863815013 -0.0072477640306394409 -0.53120565858385638 0.62081989220661504 2.1354953553813409 0.15169843758029641 -0.65960618859664699 -0.15167276723821124 0.045295417083712937 -0.38734782421260616 0.0028284069574559464
leaf_weight=296 252 133 181 140 494 287 98 284 343 89 284 247 419 148 321 72 32 148 50
leaf_count=296 252 133 181 140 494 287 98 284 343 89 284 247 419 148 321 72 32 148 50
internal_value=0.00668568 1.37862 -0.902792 -0.423131 -1.51603 0.848171 2.23218 1.14074 -1.79431 -0.0523305 -0.631541 0.501089 2.01931 0.0770408 -0.743956 -0.244603 0.00697976 -0.489946 -0.00137676
internal_weight=4318 1720 2598 1465 1133 1070 650 571 639 531 934 499 552 319 502 212 171 432 139
internal_count=4318 1720 2598 1465 1133 1070 650 571 639 531 934 499 552 319 502 212 171 432 139
is_linear=0
shrinkage=0.0408694


Tree=30
num_leaves=20
num_cat=0
split_feature=2 2 2 2 2 2 2 2 2 2 2 2 2 2 2 2 2 2 2
split_gain=2.93571e+06 424051 401045 74477.5 58738.4 49704.9 34447.1 12458.6 12075.1 6105.2 3645.63 1347.62 754.943 733.591 517.314 155.206 39.7008 33.7771 0.417863
threshold=176.27314814814818 289.29398148148152 70.717592592592595 126.44675925925928 350.2893518518519 227.71990740740742 22.164351851851855 152.08333333333334 96.180555555555571 251.7939814814815 198.95833333333334 306.01851851851853 164.06250000000003 49.363425925925931 140.33564814814818 186.86342592592595 161.74768518518519 172.39583333333334 162.55787037037041
decision_type=2 2 2 2 2 2 2 2 2 2 2 2 2 2 2 2 2 2 2
left_child=2 5 6 8 11 10 -1 14 -4 -7 15 -3 16 -8 -5 -2 -9 -14 -18
right_child=1 4 3 7 -6 9 13 12 -10 -11 -12 -13 17 -15 -16 -17 18 -19 -20
leaf_value=-1.950764606007662 0.23545309728973876 1.4700922815341035 -0.91044874071827575 -0.33512508641214245 2.7249382795002393 0.83361618941542726 -1.468916580301723 -0.047067805952029841 -0.58607208086748941 1.1997513654583618 0.58174046281964331 1.9287313518781142 0.040166201687520782 -1.1500478395477824 -0.16353661001870243 0.374127645211838 -0.0012704511858124667 0.13007576594830314 0.0031175094594614963
leaf_weight=311 97 194 365 282 195 266 328 31 604 274 229 321 29 261 67 170 68 112 52
leaf_count=311 97 194 365 282 195 266 328 31 604 274 229 321 29 261 67 170 68 112 52
internal_value=0.0143875 1.29839 -0.87983 -0.489548 2.06481 0.762035 -1.56807 -0.14475 -0.7145 1.03355 0.455058 1.77959 0.0509962 -1.34401 -0.307153 0.332582 -0.0108261 0.11673 0
internal_weight=4256 1746 2510 1610 710 1036 900 641 969 540 496 515 292 589 349 267 151 141 120
internal_count=4256 1746 2510 1610 710 1036 900 641 969 540 496 515 292 589 349 267 151 141 120
is_linear=0
shrinkage=0.0408694


Tree=31
num_leaves=22
num_cat=0
split_feature=2 2 2 2 2 2 2 2 2 2 2 2 2 2 2 2 2 2 2 0 2
split_gain=2.70696e+06 384337 375155 71686.1 58238.2 40279.7 31715.6 13828 8796.42 4845.67 3691.48 2565.6 1127.43 833.035 640.15 187.379 56.0861 24.2352 23.4054 7.05535 0.388302
threshold=179.80324074074079 284.95370370370375 70.717592592592595 128.06712962962965 352.95138888888897 223.43750000000003 22.164351851851855 97.858796296296319 152.08333333333334 251.7939814814815 306.01851851851853 198.95833333333334 116.95601851851853 172.39583333333334 49.363425925925931 141.78240740740742 161.74768518518519 164.06250000000003 186.05324074074076 62.905092592592602 162.55787037037041
decision_type=2 2 2 2 2 2 2 2 2 2 2 2 2 2 2 2 2 2 2 2 2
left_child=2 5 6 7 10 11 -1 -4 15 -7 -3 18 -9 16 -8 -5 -10 20 -2 -19 -18
right_child=1 4 3 8 -6 9 14 12 13 -11 -12 -13 -14 -15 -16 -17 17 19 -20 -21 -22
leaf_value=-1.8728685933404827 0.21686975668375932 1.4060151174479063 -0.86660296351528099 -0.28561708134776781 2.6469953148764978 0.79556110211464781 -1.4101913598888363 -0.58602246637208677 -0.045511148964659714 1.1331308429865539 1.8622270740827755 0.54869360473848039 -0.41549885428691352 0.13343435018477542 -1.1043263278695676 -0.1429253842247262 -0.0012235673435663872 0 0.3537533156369489 0.049384391183125223 0.0030057987275034712
leaf_weight=311 67 218 382 209 183 281 328 462 31 250 333 214 211 126 261 54 68 9.0000000000000018 186 20 52
leaf_count=311 67 218 382 209 183 281 328 462 31 250 333 214 211 126 261 54 68 9 186 20 52
internal_value=0.0140065 1.25536 -0.83886 -0.464114 1.96265 0.724352 -1.50552 -0.662497 -0.091969 0.968339 1.7031 0.435577 -0.538089 0.0559874 -1.29041 -0.262213 0 0.00957644 0.325895 0.038855 0
internal_weight=4256 1732 2524 1624 734 998 900 1055 569 531 551 467 673 306 589 263 180 149 253 29 120
internal_count=4256 1732 2524 1624 734 998 900 1055 569 531 551 467 673 306 589 263 180 149 253 29 120
is_linear=0
shrinkage=0.0408694


Tree=32
num_leaves=21
num_cat=0
split_feature=2 2 2 2 2 2 2 2 2 2 2 2 2 2 2 2 2 2 2 2
split_gain=2.49625e+06 360858 340843 63260.3 55640.6 37168 29231 11596.4 9012.01 4597.74 2590.59 1995.45 901.6 648.859 613.158 425.922 280.247 34.7003 23.2338 0.360833
threshold=176.27314814814818 279.45601851851859 70.717592592592595 127.60416666666667 349.13194444444451 220.31250000000003 1.0000000180025095e-35 96.180555555555571 152.08333333333334 237.78935185185188 306.01851851851853 197.39583333333334 52.488425925925931 164.06250000000003 116.72453703703705 389.46759259259267 140.33564814814818 161.74768518518519 172.39583333333334 162.55787037037041
decision_type=2 2 2 2 2 2 2 2 2 2 2 2 2 2 2 2 2 2 2 2
left_child=2 5 6 7 10 11 -1 -4 16 -7 -3 -2 -8 17 -9 -6 -5 -10 -15 -19
right_child=1 4 3 8 15 9 12 14 13 -11 -12 -13 -14 18 -16 -17 -18 19 -20 -21
leaf_value=-1.808107426874985 0.28909947994273655 1.3471692554634098 -0.83924737491369372 -0.29356704974744052 2.1078017697775766 0.74353948668532832 -1.3454196465122301 -0.56880377823730499 -0.04400597337206591 1.0635746543834599 1.7680784665302476 0.48970988201803239 -1.040484508950712 0.037743280014512902 -0.41133169751913357 3.1076643230050967 -0.15122326328184674 -0.0011784137257440299 0.11996594388542262 0.0028980908464617617
leaf_weight=300 222 230 365 236 146 281 372 464 31 262 311 235 228 29 186 59 67 68 112 52
leaf_count=300 222 230 365 236 146 281 372 464 31 262 311 235 228 29 186 59 67 68 112 52
internal_value=0.0136041 1.19761 -0.810967 -0.451146 1.87533 0.681772 -1.44546 -0.646305 -0.113868 0.910639 1.61008 0.399063 -1.24401 0.047044 -0.529326 2.49421 -0.267472 -0.0101236 0.108003 0
internal_weight=4256 1746 2510 1610 746 1000 900 1015 595 543 541 457 600 292 650 205 303 151 141 120
internal_count=4256 1746 2510 1610 746 1000 900 1015 595 543 541 457 600 292 650 205 303 151 141 120
is_linear=0
shrinkage=0.0408694


Tree=33
num_leaves=20
num_cat=0
split_feature=2 2 2 2 2 2 2 2 2 2 2 2 2 2 2 2 2 2 2
split_gain=2.30288e+06 327921 318881 56426.8 45105.1 40995.1 31913.1 10212.2 6324.69 5872.2 5692.36 2972.72 2438.89 861.169 580.652 208.715 141.906 25.8744 2.25615
threshold=179.80324074074079 289.87268518518528 80.729166666666671 129.68750000000003 382.46527777777777 230.38194444444449 23.090277777777782 102.25694444444446 158.62268518518522 257.00231481481484 312.55787037037044 207.69675925925927 61.574074074074083 117.30324074074075 172.39583333333334 141.78240740740742 191.78240740740742 164.06250000000003 162.55787037037041
decision_type=2 2 2 2 2 2 2 2 2 2 2 2 2 2 2 2 2 2 2
left_child=2 5 6 7 10 11 -1 -4 15 -7 -3 16 -8 -9 17 -5 -2 18 -10
right_child=1 4 3 8 -6 9 12 13 14 -11 -12 -13 -14 -15 -16 -17 -18 -19 -20
leaf_value=-1.7124462408516203 0.22497476840244168 1.3437758945451643 -0.75783433973144232 -0.24802048198764631 2.8229776903930626 0.78959155929809299 -1.2452253377133451 -0.52219700898701971 -0.006064354341994576 1.1420837276795424 1.8240053226325228 0.53702762031224305 -0.9210906815008667 -0.37289627977122841 0.12291984721710245 -0.12438086192894741 0.35165396532218302 0.036511218685756533 0.0027942424433371731
leaf_weight=328 109 194 393 175 83 340 433 411 83 214 404 219 194 230 126 70 169 29 52
leaf_count=328 109 194 393 175 83 340 433 411 83 214 404 219 194 230 126 70 169 29 52
internal_value=0.0133685 1.15834 -0.773266 -0.411384 1.85433 0.69736 -1.35983 -0.58673 -0.0685355 0.939446 1.68687 0.417143 -1.15723 -0.473949 0.0594145 -0.218646 0.310192 0.00550886 -0.000333383
internal_weight=4256 1732 2524 1569 681 1051 955 1034 535 554 598 497 627 641 290 245 278 164 135
internal_count=4256 1732 2524 1569 681 1051 955 1034 535 554 598 497 627 641 290 245 278 164 135
is_linear=0
shrinkage=0.0408694


Tree=34
num_leaves=20
num_cat=0
split_feature=2 2 2 2 2 2 2 2 2 2 2 2 2 2 2 2 2 2 2
split_gain=2.12392e+06 314324 284810 57348 51188.5 25972.3 24977.7 8805.26 8310.7 4735.2 2318.53 1855.98 1522.9 909.732 436.565 356.587 34.9288 29.3112 0.29515
threshold=174.94212962962965 268.57638888888897 70.717592592592595 348.09027777777783 126.44675925925928 216.78240740740745 1.0000000180025095e-35 96.180555555555571 152.08333333333334 302.60416666666669 389.46759259259267 237.78935185185188 191.78240740740742 49.363425925925931 164.06250000000003 139.64120370370372 116.03009259259261 161.74768518518519 162.55787037037041
decision_type=2 2 2 2 2 2 2 2 2 2 2 2 2 2 2 2 2 2 2
left_child=2 5 6 9 7 12 -1 -4 15 -3 -5 -7 -2 -8 17 -6 -9 -10 -19
right_child=1 3 4 10 8 11 13 16 14 -11 -12 -13 -14 -15 -16 -17 -18 18 -20
leaf_value=-1.6676463266998964 0.20897707458284936 1.2052670202073099 -0.77427122337509446 1.9437490242518456 -0.29391061853737072 0.67362153894859689 -1.2538422992050844 -0.53316040119468899 -0.040330377192639419 1.6030191853715856 2.8919966116733291 0.92685333798915759 0.40022820931847641 -0.97488149354140252 0.090389356755463571 -0.16646368670989209 -0.4081003272994605 -0.00091113163161633522 0.0026941155617290474
leaf_weight=300 139 268 365 157 245 315 339 401 31 326 59 198 300 261 125 104 203 68 52
leaf_count=300 139 268 365 157 245 315 339 401 31 326 59 198 300 261 125 104 203 68 52
internal_value=0.0130557 1.0968 -0.753435 1.68634 -0.421721 0.585814 -1.33244 -0.606834 -0.130496 1.44095 2.29043 0.783648 0.344836 -1.14624 0.0359006 -0.261064 -0.497057 -0.00918343 0
internal_weight=4256 1762 2494 810 1594 952 900 969 625 594 216 513 439 600 276 349 604 151 120
internal_count=4256 1762 2494 810 1594 952 900 969 625 594 216 513 439 600 276 349 604 151 120
is_linear=0
shrinkage=0.0408694


Tree=35
num_leaves=21
num_cat=0
split_feature=2 2 2 2 2 2 2 2 2 2 2 2 2 2 2 2 2 2 2 2
split_gain=1.95935e+06 275996 274936 46717.9 43906.1 32584.2 30741.8 7348.98 7266.82 5252.81 3304.69 1220.62 841.99 744.323 581.162 270.085 126.237 20.9421 0.696218 0.480424
threshold=184.0277777777778 297.1643518518519 81.307870370370395 134.0277777777778 233.50694444444449 389.46759259259267 23.437500000000004 208.73842592592595 103.41435185185186 158.62268518518522 61.574074074074083 260.8217592592593 324.59490740740745 117.30324074074075 172.39583333333334 191.78240740740742 141.78240740740742 162.90509259259264 162.55787037037041 164.06250000000003
decision_type=2 2 2 2 2 2 2 2 2 2 2 2 2 2 2 2 2 2 2 2
left_child=2 4 6 8 7 12 -1 15 -4 16 -8 -6 -3 -10 17 -2 -5 18 -11 -19
right_child=1 5 3 9 11 -7 10 -9 13 14 -12 -13 -14 -15 -16 -17 -18 19 -20 -21
leaf_value=-1.567114318314538 0.21206964975536693 1.3925741959427331 -0.67832405079217928 -0.22184001093411396 0.79483028483933171 2.7868291629488242 -1.1413149083760286 0.60239753797895024 -0.4776661774744429 -0.0055347501589413017 -0.84124737519722159 1.1024660922862441 1.7908836010730844 -0.34162588193442101 0.11938568066556231 0.35072139983916722 -0.11468479425417194 0.002002277598814915 0 0.032368778594830318
leaf_weight=344 96 241 364 160 159 59 417 361 394 83 240 282 299 245 139 222 70 31 21 29
leaf_count=344 96 241 364 160 159 59 417 361 394 83 240 282 299 245 139 222 70 31 21 29
internal_value=0.0127875 1.0756 -0.708235 -0.361631 0.688966 1.78096 -1.23328 0.473357 -0.525011 -0.0506204 -1.04267 1.00706 1.6347 -0.430477 0.0600405 0.315597 -0.195173 0.00484199 -0.00379558 0.0235699
internal_weight=4256 1719 2537 1536 1120 599 1001 679 1003 533 657 441 540 639 303 318 230 164 104 60
internal_count=4256 1719 2537 1536 1120 599 1001 679 1003 533 657 441 540 639 303 318 230 164 104 60
is_linear=0
shrinkage=0.0408694


Tree=36
num_leaves=19
num_cat=0
split_feature=2 2 2 2 2 2 2 2 2 2 2 2 2 2 2 2 2 2
split_gain=1.78853e+06 264158 246709 45689 40112.4 26107.4 24123.3 7981.97 6577.95 4258.37 2691.88 2568.82 1490.56 751.103 354.054 31.5378 15.2227 0.221349
threshold=174.94212962962965 278.29861111111114 80.729166666666671 360.70601851851859 129.68750000000003 219.9652777777778 22.164351851851855 98.668981481481495 311.57407407407413 152.08333333333334 244.44444444444449 52.488425925925931 196.70138888888891 117.30324074074075 164.06250000000003 141.78240740740742 161.97916666666671 162.55787037037041
decision_type=2 2 2 2 2 2 2 2 2 2 2 2 2 2 2 2 2 2
left_child=2 5 6 8 7 12 -1 -4 -3 15 -7 -8 -2 -9 16 -6 -11 -18
right_child=1 3 4 -5 9 10 11 13 -10 14 -12 -13 -14 -15 -16 -17 17 -19
leaf_value=-1.5238796918897006 0.20861458230836097 1.1468191090865689 -0.68206046581262558 2.2788719757517812 -0.21961178185951022 0.63232623896799178 -1.1413544910058497 -0.46624718363672879 1.5559893106268725 -0.026349650794336273 0.89497511964625986 -0.86482827036741394 0.3847895228297451 -0.33100732398633476 0.082988768067669749 -0.12073997881561239 0 0.0024359262100737771
leaf_weight=313 168 274 354 142 171 302 390 446 334 38 223 280 302 229 125 58 61 55
leaf_count=313 168 274 354 142 171 302 390 446 334 38 223 280 302 229 125 58 61 55
internal_value=-0.00278087 1.00053 -0.69855 1.57743 -0.371943 0.557012 -1.20237 -0.517873 1.38795 -0.0725481 0.755273 -1.03686 0.326675 -0.424893 0.0337373 -0.200494 -0.00611463 0
internal_weight=4265 1745 2520 750 1537 995 983 1029 608 508 525 670 470 675 279 229 154 116
internal_count=4265 1745 2520 750 1537 995 983 1029 608 508 525 670 470 675 279 229 154 116
is_linear=0
shrinkage=0.0408694


Tree=37
num_leaves=20
num_cat=0
split_feature=2 2 2 2 2 2 2 2 2 2 2 2 2 2 2 2 2 2 2
split_gain=1.6492e+06 243865 227474 46157.1 31572.1 30101.9 20725.1 10112.3 3856.05 3619.28 1532.19 1380.47 1137.29 327.863 257.668 140.479 14.3929 1.72595 0.247636
threshold=174.94212962962965 268.57638888888897 91.030092592592609 336.16898148148152 45.428240740740755 134.0277777777778 219.9652777777778 389.46759259259267 105.03472222222224 152.08333333333334 1.0000000180025095e-35 197.04861111111114 237.78935185185188 164.06250000000003 68.807870370370395 121.58564814814817 161.74768518518519 145.02314814814818 162.55787037037041
decision_type=2 2 2 2 2 2 2 2 2 2 2 2 2 2 2 2 2 2 2
left_child=2 6 4 -3 10 8 11 -5 -4 17 -1 -2 -8 16 -6 -10 -11 -7 -18
right_child=1 3 5 7 14 9 12 -9 15 13 -12 -13 -14 -15 -16 -17 18 -19 -20
leaf_value=-1.4771748802560403 0.22048208361191851 1.2097066075158842 -0.56758531116681077 1.6720851135318444 -0.94886001770604989 -0.20079565956215184 0.60256710890859511 2.5887782831008934 -0.41177511288219976 -0.028976476196911315 -1.136572134878564 0.38397877462930213 0.8236241795013427 0.079784412345286868 -0.73629400752277452 -0.30347260763091022 -0.00094615692877728975 -0.1028416687960224 0.0023480482252240856
leaf_weight=295 217 490 385 237 310 173 291 60 332 28 256 253 197 125 249 199 71 42 55
leaf_count=295 217 490 385 237 310 173 291 60 332 28 256 253 197 125 249 199 71 42 55
internal_value=-0.00254003 0.960896 -0.670663 1.49188 -1.1068 -0.323151 0.516349 1.9161 -0.461021 -0.0638435 -1.33648 0.313724 0.703316 0.0323803 -0.865489 -0.37648 -0.00589489 -0.187175 0
internal_weight=4265 1745 2520 787 1110 1410 958 297 916 494 551 470 488 279 559 531 154 215 126
internal_count=4265 1745 2520 787 1110 1410 958 297 916 494 551 470 488 279 559 531 154 215 126
is_linear=0
shrinkage=0.0408694


Tree=38
num_leaves=20
num_cat=0
split_feature=2 2 2 2 2 2 2 2 2 2 2 2 2 2 2 2 2 2 2
split_gain=1.52115e+06 226356 209767 38998.3 36772.5 27667.1 17642.3 7649.82 6175.53 4802.95 2337.53 1119.6 406.269 303.782 217.847 123.365 13.4738 2.68253 0.230012
threshold=174.94212962962965 297.1643518518519 70.717592592592595 232.58101851851856 127.83564814814817 383.50694444444451 1.0000000180025095e-35 96.180555555555571 207.69675925925927 152.08333333333334 260.8217592592593 49.363425925925931 116.26157407407409 164.06250000000003 186.05324074074076 140.33564814814818 161.74768518518519 210.82175925925927 162.55787037037041
decision_type=2 2 2 2 2 2 2 2 2 2 2 2 2 2 2 2 2 2 2
left_child=2 3 6 8 7 -3 -1 -4 14 15 -5 -8 -9 16 -2 -6 -11 -10 -18
right_child=1 5 4 10 9 -7 11 12 17 13 -12 -13 -14 -15 -16 -17 18 -19 -20
leaf_value=-1.4182632000218225 0.15633965668241728 1.4395492071198033 -0.66188411013075976 0.68852124599047626 -0.22497501623258387 2.4439051722842304 -1.0709864070161725 -0.44749988902463173 0.38385523925314541 -0.02803734164768899 0.97412315975586139 -0.82654365581700995 -0.33085706848660446 0.076703782841947524 0.27061309343369327 -0.11925727235439663 -0.00091109665991325145 0.54105671113609188 0.0022633402943296552
leaf_weight=295 98 504 352 199 217 67 371 429 121 28 290 265 243 125 215 69 71 251 55
leaf_count=295 98 504 352 199 217 67 371 429 121 28 290 265 243 125 215 69 71 251 55
internal_value=-0.00232281 0.92295 -0.643986 0.591691 -0.355544 1.58737 -1.12933 -0.500872 0.385143 -0.0885366 0.87042 -0.980202 -0.409827 0.0310636 0.240262 -0.204217 -0.00570502 0.499187 0
internal_weight=4265 1745 2520 1174 1589 571 931 1024 685 565 489 636 672 279 313 286 154 372 126
internal_count=4265 1745 2520 1174 1589 571 931 1024 685 565 489 636 672 279 313 286 154 372 126
is_linear=0
shrinkage=0.0408694


Tree=39
num_leaves=20
num_cat=0
split_feature=2 2 2 2 2 2 2 2 2 2 2 2 2 2 2 2 2 2 2
split_gain=1.40283e+06 208862 193506 30773.5 29856 26953.1 25556.9 4098.29 3507.83 2788.84 2712.92 2677.49 775.593 232.341 194.942 165.779 135.358 65.3369 1.17942
threshold=174.94212962962965 290.79861111111114 91.030092592592609 231.07638888888891 382.46527777777777 35.648148148148152 137.96296296296299 257.00231481481484 105.4976851851852 158.62268518518522 315.85648148148158 207.69675925925927 64.178240740740748 164.06250000000003 186.05324074074076 1.0000000180025095e-35 122.28009259259261 150.86805555555557 162.55787037037041
decision_type=2 2 2 2 2 2 2 2 2 2 2 2 2 2 2 2 2 2 2
left_child=2 3 5 11 10 15 8 -5 -4 17 -3 14 -7 18 -2 -1 -10 -8 -11
right_child=1 4 6 7 -6 12 9 -9 16 13 -12 -13 -14 -15 -16 -17 -18 -19 -20
leaf_value=-1.3617007940370907 0.15039356799288309 1.1139628668985189 -0.51893603737713123 0.62326034307084965 2.2821095334454626 -0.8997752647328946 -0.17068466119545586 0.90699557748182003 -0.37330612960537751 -0.0042577751828649715 1.4779776498777952 0.4279270722095197 -0.69175190230690742 0.073742101611184427 0.25991688171903471 -1.0536464661789022 -0.27318962257001761 -0.049678384062747848 0.002181688504734517
leaf_weight=295 98 238 404 318 79 312 188 247 329 85 309 241 283 125 215 220 200 24 55
leaf_count=295 98 238 404 318 79 312 188 247 329 85 309 241 283 125 215 220 200 24 55
internal_value=-0.0020955 0.88646 -0.618301 0.545697 1.48173 -1.02057 -0.29776 0.757883 -0.421449 -0.0524291 1.33697 0.321652 -0.810982 0.0348854 0.230883 -1.24733 -0.340317 -0.160623 0
internal_weight=4265 1745 2520 1119 626 1110 1410 565 933 477 547 554 595 265 313 515 529 212 140
internal_count=4265 1745 2520 1119 626 1110 1410 565 933 477 547 554 595 265 313 515 529 212 140
is_linear=0
shrinkage=0.0408694


Tree=40
num_leaves=20
num_cat=0
split_feature=2 2 2 2 2 2 2 2 2 2 2 2 2 2 2 2 2 2 2
split_gain=1.294e+06 193029 178438 33208.6 31918.3 25087.7 14251.6 5967.19 5555.07 5170.62 1402.52 639.143 515.109 260.452 229.89 174.808 84.3564 11.9924 0.164976
threshold=174.94212962962965 297.1643518518519 69.849537037037052 232.81250000000003 126.44675925925928 389.46759259259267 1.0000000180025095e-35 96.180555555555571 207.69675925925927 152.08333333333334 260.8217592592593 49.363425925925931 324.59490740740745 164.06250000000003 139.40972222222226 187.90509259259261 210.82175925925927 161.97916666666671 162.55787037037041
decision_type=2 2 2 2 2 2 2 2 2 2 2 2 2 2 2 2 2 2 2
left_child=2 3 6 8 7 12 -1 -4 15 14 -5 -8 -3 17 -6 -2 -10 -11 -19
right_child=1 5 4 10 9 -7 11 -9 16 13 -12 -13 -14 -15 -16 -17 -18 18 -20
leaf_value=-1.3073944033253559 0.15741603502417037 1.1220846979208774 -0.61381811169250911 0.64111065981392501 -0.23466459638933684 2.322286308501357 -0.98834149254029513 -0.38720753667901681 0.35256789271547939 -0.023270173748117455 0.89756802865509777 -0.76531677940076648 1.4579177220771724 0.070894776691912936 -0.13568631399683057 0.25705315000120499 0.503601936968604 0 0.0021029822950532837
leaf_weight=295 128 219 366 182 228 60 371 608 121 38 290 251 292 125 122 185 268 61 55
leaf_count=295 128 219 366 182 228 60 371 608 121 38 290 251 292 125 122 185 268 61 55
internal_value=-0.00187233 0.85152 -0.593699 0.54559 -0.330766 1.4651 -1.04672 -0.476639 0.360379 -0.101477 0.810661 -0.908807 1.33249 0.0286165 -0.204581 0.221872 0.464834 -0.00528377 0
internal_weight=4265 1745 2520 1174 1603 571 917 974 702 629 472 622 511 279 350 313 389 154 116
internal_count=4265 1745 2520 1174 1603 571 917 974 702 629 472 622 511 279 350 313 389 154 116
is_linear=0
shrinkage=0.0408694


Tree=41
num_leaves=20
num_cat=0
split_feature=2 2 2 2 2 2 2 2 2 2 2 2 2 2 2 2 2 2 2
split_gain=1.19371e+06 178306 164678 28372.9 25154.9 22990.7 21704.8 4181.4 2834.91 2610.93 2238.92 1893.88 649.803 198.153 162.402 108.361 63.9134 27.575 0.972556
threshold=174.94212962962965 292.18750000000006 91.030092592592609 231.07638888888891 389.46759259259267 35.648148148148152 134.0277777777778 257.00231481481484 104.68750000000001 158.62268518518522 207.69675925925927 319.0393518518519 61.574074074074083 164.06250000000003 185.70601851851856 121.46990740740742 145.02314814814818 1.0000000180025095e-35 162.55787037037041
decision_type=2 2 2 2 2 2 2 2 2 2 2 2 2 2 2 2 2 2 2
left_child=2 3 5 10 11 17 8 -5 -4 16 14 -3 -7 18 -2 -10 -8 -1 -11
right_child=1 4 6 7 -6 12 9 -9 15 13 -12 -13 -14 -15 -16 -17 -18 -19 -20
leaf_value=-1.2552536594819947 0.12886108305022637 1.045908287332189 -0.48665036542150225 0.57530396630645564 2.2376809733117438 -0.84263680991324441 -0.17025183946395775 0.84625500471007853 -0.3529791400470309 -0.0038502704929431076 0.39398449099772931 1.3863965321433371 -0.64999380570991117 0.068157392924493451 0.23601129889430802 -0.26101717099012395 -0.081183100542703307 -0.97287483239954398 0.0020271155071011457
leaf_weight=295 80 220 367 318 60 271 173 275 334 85 241 318 324 125 233 215 56 220 55
leaf_count=295 80 220 367 318 60 271 173 275 334 85 241 318 324 125 233 215 56 220 55
internal_value=-0.0015528 0.818096 -0.569984 0.513892 1.38778 -0.941083 -0.274259 0.710286 -0.39134 -0.0539562 0.296565 1.26366 -0.74745 0.0322747 0.213234 -0.321468 -0.153071 -1.15057 0
internal_weight=4265 1745 2520 1147 598 1110 1410 593 916 494 554 538 595 265 313 549 229 515 140
internal_count=4265 1745 2520 1147 598 1110 1410 593 916 494 554 538 595 265 313 549 229 515 140
is_linear=0
shrinkage=0.0408694


Tree=42
num_leaves=19
num_cat=0
split_feature=2 2 2 2 2 2 2 2 2 2 2 2 2 2 2 2 2 2
split_gain=1.13056e+06 162731 158012 26623.5 23763.4 22748.2 22299.9 3657.94 2646.4 2506.41 902.369 757.773 358.732 209.902 145.401 34.8155 12.7107 0.342333
threshold=185.2430555555556 92.187500000000014 301.33101851851859 233.50694444444449 46.00694444444445 389.46759259259267 138.7152777777778 210.12731481481487 158.62268518518522 115.33564814814817 1.0000000180025095e-35 260.8217592592593 172.39583333333334 68.807870370370395 196.23842592592595 150.86805555555557 162.90509259259264 162.55787037037041
decision_type=2 2 2 2 2 2 2 2 2 2 2 2 2 2 2 2 2 2
left_child=1 4 3 7 10 -4 9 14 15 -3 -1 -5 16 -6 -2 -8 17 -10
right_child=2 6 5 11 13 -7 8 -9 12 -11 -12 -13 -14 -15 -16 -17 -18 -19
leaf_value=-1.2057955564127414 0.17205440065093378 -0.43276683678879541 1.2490423991429382 0.60182924573675767 -0.76707300359907293 2.1884857334561501 -0.14791053787526948 0.46877056612695017 -0.0043452047328521549 -0.28163218346201552 -0.93183334126895268 0.83366702809637472 0.091780891685845314 -0.59684763781686245 0.2823677270763203 -0.050313646840307036 0.017651522087264393 0
leaf_weight=301 93 472 509 162 290 60 178 293 87 455 264 321 148 284 264 28 62 17
leaf_count=301 93 472 509 162 290 60 178 293 87 455 264 321 148 284 264 28 62 17
internal_value=0.00556369 -0.532218 0.821641 0.536324 -0.896354 1.37518 -0.242296 0.357993 -0.0266914 -0.361726 -1.0919 0.766719 0.0470293 -0.691988 0.258577 -0.138391 0.00301247 -0.00329546
internal_weight=4288 2586 1702 1133 1139 569 1447 650 520 927 565 483 314 574 357 206 166 104
internal_count=4288 2586 1702 1133 1139 569 1447 650 520 927 565 483 314 574 357 206 166 104
is_linear=0
shrinkage=0.0408694


Tree=43
num_leaves=22
num_cat=0
split_feature=2 2 2 2 2 2 2 2 2 2 2 2 2 2 2 2 2 2 2 1 2
split_gain=1.04258e+06 150091 145777 25802.8 22542.3 20652.6 20090.1 3650.65 2333.59 2180.48 808.896 497.037 332.65 280.488 183.459 18.4145 12.7708 11.2094 3.54069 1.78642 0.297124
threshold=185.2430555555556 92.418981481481495 301.79398148148152 234.08564814814818 46.00694444444445 389.46759259259267 138.94675925925927 210.82175925925927 115.6828703703704 158.62268518518522 1.0000000180025095e-35 260.8217592592593 166.95601851851856 68.807870370370395 197.85879629629633 150.86805555555557 173.55324074074079 127.3726851851852 162.55787037037041 4223.5000000000009 162.90509259259264
decision_type=2 2 2 2 2 2 2 2 2 2 2 2 2 2 2 2 2 2 2 2 2
left_child=1 4 3 7 10 -4 8 14 -3 15 -1 -5 18 -6 -2 -8 19 -10 -11 -14 -20
right_child=2 6 5 11 13 -7 9 -9 17 12 -12 -13 16 -15 -16 -17 -18 -19 20 -21 -22
leaf_value=-1.1576836016816527 0.19955642271096907 -0.40956840381216025 1.2075947712924244 0.58179513952546957 -0.73649383797366907 2.108755069138232 -0.13717323138270029 0.4593848814047008 -0.28837156742169012 -0.0041813803243799935 -0.89477574195348764 0.80596639076205556 0 -0.57201209800657526 0.29773125960691921 -0.048682972280297325 0.096369743489500545 -0.20825606016005305 0 0.043572984430396901 0.0093634679433878681
leaf_weight=301 194 473 493 147 290 60 159 294 299 87 264 337 9.9999999999999982 297 177 28 117 161 17 36 47
leaf_count=301 194 473 493 147 290 60 159 294 299 87 264 337 10 297 177 28 117 161 17 36 47
internal_value=0.00543694 -0.510994 0.789122 0.520689 -0.857166 1.3322 -0.229729 0.348251 -0.341133 -0.0196838 -1.04842 0.748229 0.0452104 -0.661892 0.252125 -0.127974 0.0843725 -0.264742 0 0.0385548 0.00773388
internal_weight=4288 2586 1702 1149 1152 553 1434 665 933 501 565 484 314 587 371 187 163 460 151 46 64
internal_count=4288 2586 1702 1149 1152 553 1434 665 933 501 565 484 314 587 371 187 163 460 151 46 64
is_linear=0
shrinkage=0.0408694


Tree=44
num_leaves=21
num_cat=0
split_feature=2 2 2 2 2 2 2 2 2 2 2 2 2 2 2 2 2 1 2 2
split_gain=961523 139096 134120 23192.9 21496.8 21075.2 13981.9 4084.93 2378.66 2336.81 2091.64 2064.13 962.004 470.26 216.258 46.0884 19.7793 3.4357 3.30381 0.262879
threshold=179.80324074074079 300.69444444444451 81.0763888888889 232.11805555555557 134.0277777777778 394.27083333333343 34.085648148148159 98.437500000000014 207.69675925925927 158.62268518518522 260.8217592592593 335.35879629629636 58.275462962962969 117.30324074074075 166.95601851851856 145.02314814814818 187.90509259259261 3436.9200000000005 162.55787037037041 162.90509259259264
decision_type=2 2 2 2 2 2 2 2 2 2 2 2 2 2 2 2 2 2 2 2
left_child=2 3 6 8 7 11 -1 -4 16 15 -5 -3 -8 -9 18 -6 -2 -16 -11 -20
right_child=1 5 4 10 9 -7 12 13 -10 14 -12 -13 -14 -15 17 -17 -18 -19 19 -21
leaf_value=-1.0717972772403892 0.13818511112740131 0.97525618788840296 -0.49338105914357788 0.53714469418530142 -0.15126735016262371 2.1168293801510196 -0.79440664274945338 -0.33522788694406203 0.37628326711187732 -0.0040237326712539 0.76280812626441363 1.2919814584961526 -0.59780382987079683 -0.23531449519037773 0 -0.074281663752850974 0.21983614550386105 0.072966750102640685 0 0.0090322848106136125
leaf_weight=388 93 263 317 249 177 49 364 469 311 87 306 272 249 247 4.9999999999999991 61 188 129 17 47
leaf_count=388 93 263 317 249 177 49 364 469 311 87 306 272 249 247 5 61 188 129 17 47
internal_value=0.00530763 0.747426 -0.497648 0.480441 -0.257939 1.25881 -0.865361 -0.36546 0.295741 -0.0428302 0.670456 1.15214 -0.72307 -0.303949 0.0350337 -0.1357 0.198161 0.0713803 0 0.00748166
internal_weight=4288 1731 2557 1147 1556 584 1001 1033 592 523 555 535 613 716 285 238 281 134 151 64
internal_count=4288 1731 2557 1147 1556 584 1001 1033 592 523 555 535 613 716 285 238 281 134 151 64
is_linear=0
shrinkage=0.0408694


Tree=45
num_leaves=20
num_cat=0
split_feature=2 2 2 2 2 2 2 2 2 2 2 2 2 2 2 2 2 2 2
split_gain=886946 127725 124426 22764.5 21461.6 18142.9 15655.4 3122.56 2283.71 1888.58 858.319 439.326 254.444 252.711 136.232 63.7653 32.2079 16.317 0.00761639
threshold=185.2430555555556 92.881944444444457 302.60416666666669 234.08564814814818 46.585648148148159 394.27083333333343 139.87268518518519 210.82175925925927 116.95601851851853 1.0000000180025095e-35 161.74768518518519 260.8217592592593 335.35879629629636 173.32175925925927 197.85879629629633 134.0277777777778 158.62268518518522 163.36805555555557 162.55787037037041
decision_type=2 2 2 2 2 2 2 2 2 2 2 2 2 2 2 2 2 2 2
left_child=1 4 3 7 9 12 8 14 -3 -1 16 -5 -4 17 -2 -10 -8 18 -12
right_child=2 6 5 11 -6 -7 10 -9 15 -11 13 -13 -14 -15 -16 -17 -18 -19 -20
leaf_value=-1.0687259837007765 0.18409926864888618 -0.34585738114186754 0.95327230298487609 0.53823059780428428 -0.58187813509357111 2.0415442745362022 -0.090347463380277535 0.42383446291279764 -0.22866887405507169 -0.81556951166902425 -0.00040051022094236334 0.74627750517665536 1.2405605815418399 0.086252480263725867 0.27328907297437133 -0.15211068074770076 0 0.023628810986826242 0
leaf_weight=301 194 570 220 147 574 49 102 294 262 327 72 349 272 131 177 136 14.999999999999998 65 31
leaf_count=301 194 570 220 147 574 49 102 294 262 327 72 349 272 131 177 136 15 65 31
internal_value=0.00528318 -0.471038 0.728116 0.483974 -0.778187 1.23801 -0.201354 0.320989 -0.290899 -0.948332 0.00764623 0.693993 1.1286 0.0449884 0.231992 -0.206548 -0.0821275 0.00864993 0
internal_weight=4288 2586 1702 1161 1202 541 1384 665 968 628 416 496 492 299 371 398 117 168 103
internal_count=4288 2586 1702 1161 1202 541 1384 665 968 628 416 496 492 299 371 398 117 168 103
is_linear=0
shrinkage=0.0408694


Tree=46
num_leaves=22
num_cat=0
split_feature=2 2 2 2 2 2 2 2 2 2 2 2 2 2 2 2 2 1 2 2 2
split_gain=818188 118891 114353 19733.7 18928.9 18786.8 10887.4 3779.89 2240.9 2177.05 1363.43 1094.54 619.899 399.397 185.144 55.1778 13.767 2.85839 2.81015 0.177863 0.00244259
threshold=179.80324074074079 300.69444444444451 80.729166666666671 232.34953703703707 129.68750000000003 389.46759259259267 33.391203703703717 96.180555555555571 207.69675925925927 158.62268518518522 260.8217592592593 328.9930555555556 58.275462962962969 116.49305555555557 166.95601851851856 141.78240740740742 187.90509259259261 3436.9200000000005 162.55787037037041 162.90509259259264 162.32638888888891
decision_type=2 2 2 2 2 2 2 2 2 2 2 2 2 2 2 2 2 2 2 2 2
left_child=2 3 6 8 7 11 -1 -4 16 15 -5 -3 -8 -9 18 -6 -2 -16 20 -20 -11
right_child=1 5 4 10 9 -7 12 13 -10 14 -12 -13 -14 -15 17 -17 -18 -19 19 -21 -22
leaf_value=-0.99614693117511066 0.12712931575975223 0.89372893088431304 -0.46875481071707059 0.50046338844484872 -0.14676513452098749 1.8912908396555317 -0.73785908050001903 -0.31716342610050113 0.35258015816108157 -0.0041885065313880783 0.70257138883824766 1.1735393834777348 -0.55506470054875157 -0.22648847039780073 0 -0.074883271997211565 0.2028628045563925 0.067352959787233227 0 0.0081260165562990223 0
leaf_weight=369 93 252 309 229 180 60 383 459 331 73 306 272 221 276 4.9999999999999991 75 188 129 17 47 13.999999999999998
leaf_count=369 93 252 309 229 180 60 383 459 331 73 306 272 221 276 5 75 188 129 17 47 14
internal_value=0.00529335 0.689871 -0.458657 0.443015 -0.24229 1.16267 -0.806119 -0.343383 0.27825 -0.0442567 0.624588 1.05375 -0.678958 -0.28613 0.0322665 -0.129574 0.182816 0.0658948 0 0.00679144 -0.00385953
internal_weight=4288 1731 2557 1147 1584 584 973 1044 612 540 535 524 604 735 285 255 281 134 151 64 87
internal_count=4288 1731 2557 1147 1584 584 973 1044 612 540 535 524 604 735 285 255 281 134 151 64 87
is_linear=0
shrinkage=0.0408694


Tree=47
num_leaves=22
num_cat=0
split_feature=2 2 2 2 2 2 2 2 2 2 2 2 2 2 2 2 2 2 2 1 2
split_gain=754716 109871 105391 19976.8 17875.3 16852 9584.7 3480.37 2630.47 2328.96 929.047 831.573 741.093 234.077 171.237 80.8881 46.5269 33.9033 2.6285 2.25798 0.15356
threshold=179.80324074074079 301.79398148148152 79.571759259259281 233.15972222222226 128.06712962962965 402.37268518518528 22.164351851851855 96.180555555555571 208.27546296296299 158.62268518518522 335.35879629629636 52.025462962962969 265.45138888888897 116.26157407407409 166.95601851851856 141.78240740740742 220.31250000000003 187.90509259259261 162.55787037037041 3436.9200000000005 162.90509259259264
decision_type=2 2 2 2 2 2 2 2 2 2 2 2 2 2 2 2 2 2 2 2 2
left_child=2 3 6 8 7 10 -1 -4 17 15 -3 -8 -5 -9 18 -6 -10 -2 -11 -16 -20
right_child=1 5 4 12 9 -7 11 13 16 14 -12 -13 -14 -15 19 -17 -18 -19 20 -21 -22
leaf_value=-0.97853191021922303 0.12231216003002794 0.87514531346631363 -0.45263312142134365 0.49934492713729112 -0.14790033234047786 1.9714491093510385 -0.73691755806411319 -0.30666001638065382 0.28023283661937348 -0.0037270272584216156 1.1527078908131632 -0.55937535830271512 0.68832519344710719 -0.22481760996778852 0 -0.072094575273339567 0.39497554657667494 0.19950596217310304 0 0.06474787070959663 0.0078386021575859426
leaf_weight=319 93 232 325 195 212 41 362 435 150 87 280 276 321 268 4.9999999999999991 75 216 203 17 129 47
leaf_count=319 93 232 325 195 212 41 362 435 150 87 280 276 321 268 5 75 216 203 17 129 47
internal_value=0.00524475 0.662736 -0.440344 0.434644 -0.235329 1.13601 -0.778379 -0.336726 0.280161 -0.0505709 1.04167 -0.667836 0.625518 -0.278565 0.0310411 -0.131509 0.355252 0.179887 0 0.0633818 0.00657255
internal_weight=4288 1731 2557 1178 1600 553 957 1028 662 572 512 638 516 703 285 287 366 296 151 134 64
internal_count=4288 1731 2557 1178 1600 553 957 1028 662 572 512 638 516 703 285 287 366 296 151 134 64
is_linear=0
shrinkage=0.0408694


Tree=48
num_leaves=21
num_cat=0
split_feature=2 2 2 2 2 2 2 2 2 2 2 2 2 2 2 2 2 1 1 2
split_gain=689145 105837 93989.4 19593.7 16695.5 13333.9 7574.91 3109.9 2827.81 1414.81 1392.01 853.619 215.158 160.877 78.9608 29.18 23.6133 1.35158 0.978394 0.00365199
threshold=174.94212962962965 289.52546296296299 69.849537037037052 368.17129629629636 125.23148148148151 227.71990740740742 1.0000000180025095e-35 93.923611111111114 150.86805555555557 312.90509259259267 254.57175925925927 198.95833333333334 49.363425925925931 164.06250000000003 139.17824074074079 186.05324074074076 161.74768518518519 3454.1450000000004 3436.9200000000005 162.55787037037041
decision_type=2 2 2 2 2 2 2 2 2 2 2 2 2 2 2 2 2 2 2 2
left_child=2 5 6 9 7 11 -1 -4 14 -3 -7 15 -8 16 -6 -2 17 -10 -15 -18
right_child=1 3 4 -5 8 10 12 -9 13 -11 -12 -13 -14 18 -16 -17 19 -19 -20 -21
leaf_value=-0.94697535186051784 0.10474627788146608 0.72352872951604841 -0.44608959518426539 1.5014629126825887 -0.17536014406690226 0.40902004711167106 -0.71331033548272926 -0.28089483167875662 0 0.97432261445005652 0.58668277431330218 0.27432192346915296 -0.55292810937329495 0 -0.10872773169066634 0.17390413607059843 -0.00013312625210018525 -0.0348433854541641 0.051120646815253974 0.00027813604523476115
leaf_weight=297 94 218 363 127 226 276 361 604 4.9999999999999991 345 280 239 250 7.9999999999999991 140 195 78 40 114 52
leaf_count=297 94 218 363 127 226 276 361 604 5 345 280 239 250 8 140 195 78 40 114 52
internal_value=0.00542496 0.622058 -0.426004 1.0162 -0.238284 0.365742 -0.758031 -0.346131 -0.078429 0.888315 0.505535 0.213019 -0.655539 0.0143203 -0.153396 0.155677 -0.00929059 -0.0324785 0.0493863 0
internal_weight=4312 1774 2538 690 1630 1084 908 967 663 563 556 528 611 297 366 289 175 45 122 130
internal_count=4312 1774 2538 690 1630 1084 908 967 663 563 556 528 611 297 366 289 175 45 122 130
is_linear=0
shrinkage=0.0408694


Tree=49
num_leaves=20
num_cat=0
split_feature=2 2 2 2 2 2 2 2 2 2 2 2 2 2 2 2 1 1 2
split_gain=635552 97645.6 86662.2 18412.7 15782.1 12276.7 6565.85 3054.3 2610.77 2119.35 1285.06 781.308 149.479 69.8812 24.6403 22.0565 1.19421 0.501085 0.00339228
threshold=174.94212962962965 289.52546296296299 69.502314814814824 375.00000000000006 125.23148148148151 227.71990740740742 1.0000000180025095e-35 93.923611111111114 150.86805555555557 313.71527777777783 254.9189814814815 198.95833333333334 164.06250000000003 139.17824074074079 191.78240740740742 161.74768518518519 3454.1450000000004 3436.9200000000005 162.55787037037041
decision_type=2 2 2 2 2 2 2 2 2 2 2 2 2 2 2 2 2 2 2
left_child=2 5 6 9 7 11 -1 -4 13 -3 -7 14 15 -6 -2 16 -10 -14 -17
right_child=1 3 4 -5 8 10 -8 -9 12 -11 -12 -13 17 -15 -16 18 -18 -19 -20
leaf_value=-0.9092025122083881 0.11286773207069911 0.7084845034632804 -0.43043367375059538 1.5247269519994946 -0.16841777902532656 0.39669081178544469 -0.63364181706788747 -0.26955208248968543 0 0.96300120116396881 0.56774986378311221 0.26344321037082297 0 -0.10450455286612736 0.17556279908835631 -0.00012815155860345517 -0.033639341008987682 0.049157245228261801 0.00026816967399730259
leaf_weight=297 141 245 380 97 226 290 594 604 4.9999999999999991 348 266 239 7.9999999999999991 140 148 78 40 114 52
leaf_count=297 141 245 380 97 226 290 594 604 5 348 266 239 8 140 148 78 40 114 52
internal_value=0.00531101 0.597485 -0.409 0.97608 -0.231317 0.351268 -0.732517 -0.334734 -0.0753552 0.868309 0.485426 0.204672 0.0137243 -0.147391 0.149642 -0.00897906 -0.0313896 0.0475443 0
internal_weight=4312 1774 2538 690 1647 1084 891 984 663 593 556 528 297 366 289 175 45 122 130
internal_count=4312 1774 2538 690 1647 1084 891 984 663 593 556 528 297 366 289 175 45 122 130
is_linear=0
shrinkage=0.0408694


Tree=50
num_leaves=20
num_cat=0
split_feature=2 2 2 2 2 2 2 2 2 2 2 2 2 2 2 2 2 1 2
split_gain=586095 91502.2 78801.6 19277 14564.9 9695.52 5528.48 2697.79 2572 1681.15 1213.2 720.913 582.261 119.206 107.515 20.6038 18.9331 1.04973 0.00315104
threshold=174.36342592592595 279.45601851851859 69.270833333333357 357.23379629629636 121.58564814814817 220.89120370370372 1.0000000180025095e-35 93.923611111111114 150.86805555555557 402.37268518518528 311.57407407407413 251.7939814814815 191.78240740740742 138.7152777777778 164.06250000000003 161.74768518518519 203.41435185185188 3454.1450000000004 162.55787037037041
decision_type=2 2 2 2 2 2 2 2 2 2 2 2 2 2 2 2 2 2 2
left_child=2 5 6 10 7 12 -1 -4 13 -5 -3 -7 -2 -6 15 17 -14 -10 -17
right_child=1 3 4 9 8 11 -8 -9 14 -11 -12 -13 16 -15 -16 18 -18 -19 -20
leaf_value=-0.87293636217709669 0.10704306951152902 0.64551911744427803 -0.41613234606180532 1.0869183851274751 -0.17338612767827719 0.36879462685418207 -0.6140542065583714 -0.26375388038218933 0 1.7534470132693061 0.86434635493861589 0.51561138054752231 0.17151723371426703 -0.10773531217195212 0.040759946526968474 -0.00012336279493868347 0.2458367220571234 -0.032476902452442828 0.00025856008332363214
leaf_weight=297 154 246 404 128 235 292 570 556 4.9999999999999991 41 332 237 164 179 109 78 193 40 52
leaf_count=297 154 246 404 128 235 292 570 556 5 41 332 237 164 179 109 78 193 40 52
internal_value=0.00525137 0.570409 -0.395083 0.914179 -0.227984 0.318513 -0.709675 -0.330885 -0.084021 1.3165 0.781006 0.441324 0.186301 -0.148156 0.00969452 -0.0086783 0.216739 -0.0303382 0
internal_weight=4312 1787 2525 747 1658 1040 867 960 698 169 578 529 511 414 284 175 357 45 130
internal_count=4312 1787 2525 747 1658 1040 867 960 698 169 578 529 511 414 284 175 357 45 130
is_linear=0
shrinkage=0.0408694


Tree=51
num_leaves=21
num_cat=0
split_feature=2 2 2 2 2 2 2 2 2 2 2 2 2 2 2 2 2 0 1 2
split_gain=540723 84596.1 72597.8 15887.5 11869.1 11208.1 6665.68 3085.04 2104.03 2071.76 1235.56 711.585 99.7414 57.3284 45.662 43.2394 19.2483 4.26922 0.917179 0.00292696
threshold=174.36342592592595 289.87268518518528 74.710648148148167 394.27083333333343 125.23148148148151 227.71990740740742 34.895833333333336 315.85648148148158 93.923611111111114 150.86805555555557 255.26620370370372 198.95833333333334 164.06250000000003 139.40972222222226 115.33564814814817 185.70601851851856 161.74768518518519 27.488425925925931 3454.1450000000004 162.55787037037041
decision_type=2 2 2 2 2 2 2 2 2 2 2 2 2 2 2 2 2 2 2 2
left_child=2 5 6 7 8 11 -1 -3 -4 13 -7 15 16 -6 -10 -2 18 -14 -11 -18
right_child=1 3 4 -5 9 10 -8 -9 14 12 -12 -13 17 -15 -16 -17 19 -19 -20 -21
leaf_value=-0.78176249831189182 0.086891786098087079 0.6715974092046072 -0.39001622412754455 1.6175019535052912 -0.15221571043092047 0.3695209460299419 -0.53307288273015274 0.93245911695904038 -0.27367918982638245 0 0.53196730919603274 0.24283206361920795 0 -0.090266306239833366 -0.20641804641407141 0.15246137475853688 -0.000118752856618378 0.042209932837231651 -0.031354632764662778 0.00024929519047670501
leaf_weight=470 92 268 331 51 252 305 470 358 346 4.9999999999999991 264 239 11.999999999999998 114 258 210 78 97 40 52
leaf_count=470 92 268 331 51 252 305 470 358 346 5 264 239 12 114 258 210 78 97 40 52
internal_value=0.00527214 0.548116 -0.379252 0.906775 -0.208585 0.324567 -0.662842 0.830347 -0.301464 -0.0726073 0.451262 0.186466 0.00925293 -0.135961 -0.248307 0.136093 -0.00838793 0.0391988 -0.0293232 0
internal_weight=4312 1787 2525 677 1585 1110 940 626 935 650 569 541 284 366 604 302 175 109 45 130
internal_count=4312 1787 2525 677 1585 1110 940 626 935 650 569 541 284 366 604 302 175 109 45 130
is_linear=0
shrinkage=0.0408694


Tree=52
num_leaves=20
num_cat=0
split_feature=2 2 2 2 2 2 2 2 2 2 2 2 2 2 2 2 2 1 2
split_gain=498700 78164.8 67013.5 16751.1 12663.3 8631.59 4571.82 2448.64 2087.43 1269.96 993.974 747.95 495.588 153.092 92.7867 17.9833 6.36408 0.79568 0.00271883
threshold=174.36342592592595 284.95370370370375 68.807870370370395 359.2592592592593 117.30324074074075 220.89120370370372 1.0000000180025095e-35 150.86805555555557 93.923611111111114 402.37268518518528 311.57407407407413 251.7939814814815 191.78240740740742 138.7152777777778 164.06250000000003 161.74768518518519 203.41435185185188 3454.1450000000004 162.55787037037041
decision_type=2 2 2 2 2 2 2 2 2 2 2 2 2 2 2 2 2 2 2
left_child=2 5 6 10 8 12 -1 13 -4 -5 -3 -7 -2 -6 15 17 -14 -9 -17
right_child=1 3 4 9 7 11 -8 14 -10 -11 -12 -13 16 -15 -16 18 -18 -19 -20
leaf_value=-0.80693401415231181 0.098446168138778545 0.59623575059246781 -0.38451046064086891 1.0097136029048077 -0.1652136769116925 0.33987586710216799 -0.56855416940694026 0 -0.24744319000248405 1.6365201764996815 0.80097992358032288 0.48041528250531318 0.15849633228177665 -0.099077220056937795 0.03776006972503524 -0.00011431538293326988 0.22659379161617671 -0.030271143410458796 0.00024036205209641471
leaf_weight=297 154 232 420 117 280 292 554 4.9999999999999991 511 41 343 251 164 179 109 78 193 40 52
leaf_count=297 154 232 420 117 280 292 554 5 511 41 343 251 164 179 109 78 193 40 52
internal_value=0.00520902 0.526535 -0.364068 0.849444 -0.21208 0.297351 -0.658301 -0.0844278 -0.312148 1.23955 0.727464 0.410965 0.171885 -0.142096 0.00885394 -0.0081076 0.200036 -0.0283433 0
internal_weight=4312 1787 2525 733 1674 1054 851 743 931 158 575 543 511 459 284 175 357 45 130
internal_count=4312 1787 2525 733 1674 1054 851 743 931 158 575 543 511 459 284 175 357 45 130
is_linear=0
shrinkage=0.0408694


Tree=53
num_leaves=22
num_cat=0
split_feature=2 2 2 2 2 2 2 2 2 2 2 2 2 2 2 2 2 1 1 1 2
split_gain=460121 71260.9 62535.8 13625.5 12083.3 10084 4219.08 2583 2335.43 2000.16 1005.85 812.438 122.336 110.272 46.9547 16.8029 1.72559 6.65008 0.68441 0.276342 0.00252549
